svm_type c_svc
kernel_type linear
nr_class 2
total_sv 35057
rho -1.2343
label 0 1
probA -2.17047
probB -0.284576
nr_sv 17606 17451
SV
1 1:1 1338:2.3430905e-05 1341:0.1 
1 5:1 1276:1 1338:0.00019752912 1340:0.052631579 
1 17:1 1338:0.010355204 1342:0.11764706 
1 1:1 1288:1 1338:7.0378778e-05 1339:0.033333333 
1 1:1 1338:3.6315785e-06 1342:0.058823529 
1 1:1 1338:0.00034505285 1342:0.11764706 
1 1:1 1244:1 1338:6.038915e-05 1342:0.11764706 
1 11:1 1319:1 1338:6.4497975e-06 1342:0.058823529 
1 5:1 1251:1 1338:2.9750717e-06 1339:0.066666667 1340:0.052631579 
1 1:1 1253:1 1338:3.1485516e-05 1340:0.052631579 
1 12:1 1282:1 1338:1.1459605e-06 1341:0.15 1342:0.29411765 
1 2:1 1338:2.6923579e-06 1342:0.058823529 
1 13:1 1263:1 1338:0.00023000252 1339:0.23333333 1340:0.26315789 1341:0.15 1342:0.058823529 
1 12:1 1338:0.025123604 1342:0.11764706 
1 1:1 1260:1 1338:6.058948e-08 1340:0.10526316 
1 1:1 1262:1 1338:7.9269601e-05 1339:0.033333333 1340:0.052631579 
1 1:1 1338:0.00023914673 1341:0.1 1342:0.29411765 
1 5:1 1251:1 1338:2.9868886e-06 1339:0.066666667 1340:0.052631579 
1 1:1 1268:1 1338:0.00023750374 1342:0.29411765 
1 1:1 1254:1 1338:3.7430252e-05 1339:0.2 1340:0.10526316 1341:0.25 
1 1:1 1268:1 1338:0.00026175514 1342:0.058823529 
1 1:1 1251:1 1338:6.0199299e-08 1341:0.05 1342:0.058823529 
1 2:1 1260:1 1338:2.4241087e-05 1339:0.033333333 
1 1:1 1338:0.00011737041 1339:0.033333333 1342:0.058823529 
1 9:1 1251:1 1338:1.5024742e-06 1339:0.066666667 1341:0.05 
1 1:1 1338:6.2430352e-05 1342:0.058823529 
1 2:1 1245:1 1338:0.00011137032 1341:0.05 1342:0.11764706 
1 2:1 1255:1 1338:2.2289348e-06 1339:0.1 1341:0.05 
1 1:1 1244:1 1338:0.00022654139 1341:0.2 1342:0.17647059 
1 2:1 1334:1 1338:0.0010645082 1339:0.066666667 1341:0.05 
1 1:1 1244:1 1338:2.0692506e-05 1340:0.052631579 
0.2826820838168894 7:1 1277:1 1338:0.0005036886 1339:0.13333333 
1 1:1 1253:1 1338:3.3015358e-05 1341:0.1 
1 1:1 1252:1 1338:9.575033e-07 1340:0.052631579 1341:0.1 
1 1:1 1338:3.4755062e-06 1342:0.058823529 
1 1:1 1277:1 1338:8.5434623e-05 1339:0.1 1341:0.05 
1 74:1 1310:1 1338:1.8747567e-05 1340:0.10526316 1341:0.05 1342:0.058823529 
1 1:1 1251:1 1338:1.0540451e-07 1341:0.05 1342:0.058823529 
1 18:1 1242:1 1338:4.1526368e-08 1342:0.11764706 
1 1:1 1262:1 1338:0.00010382066 1339:0.033333333 1340:0.052631579 
1 7:1 1253:1 1338:0.0011528224 1340:0.052631579 
1 1:1 1338:6.1383386e-05 1342:0.058823529 
1 1:1 1338:1.022329e-06 1342:0.058823529 
1 11:1 1319:1 1338:1.2557128e-05 1342:0.058823529 
1 13:1 1263:1 1338:0.00023000252 1339:0.23333333 1340:0.26315789 1341:0.15 1342:0.058823529 
1 3:1 1255:1 1338:1.1761159e-08 1339:0.1 1341:0.05 
1 31:1 1242:1 1338:4.9121513e-06 1342:0.058823529 
1 1:1 1288:1 1338:7.3148169e-05 1339:0.033333333 
1 7:1 1333:1 1338:0.00074543677 1339:0.033333333 1342:0.058823529 
1 1:1 1338:5.9028033e-05 1339:0.033333333 1340:0.052631579 1342:0.058823529 
1 5:1 1283:1 1338:0.00012882544 1342:0.11764706 
1 32:1 1251:1 1338:0.00021540023 1339:0.1 1340:0.052631579 
1 1:1 1288:1 1338:7.7182636e-05 1339:0.033333333 
1 5:1 1283:1 1338:0.00018132832 1342:0.11764706 
1 1:1 1338:0.00013287752 1342:0.058823529 
1 3:1 1255:1 1338:4.6726919e-07 1339:0.1 1341:0.05 
1 5:1 1251:1 1338:3.2350435e-06 1339:0.066666667 1340:0.052631579 
1 7:1 1240:1 1338:0.002979422 1342:0.058823529 
1 2:1 1334:1 1338:8.7572534e-05 1339:0.066666667 1341:0.05 
0.2360322584931157 316:1 1338:4.9372344e-06 1342:0.11764706 
1 5:1 1283:1 1338:0.00015899516 1342:0.11764706 
1 5:1 1338:6.7898232e-05 1342:0.058823529 
1 1:1 1315:1 1338:0.00019870116 1340:0.052631579 
1 12:1 1338:1.0777347e-06 1342:0.23529412 
1 2:1 1315:1 1338:1.8550303e-06 1340:0.052631579 1341:0.05 
1 1:1 1285:1 1338:0.00046067564 1339:0.033333333 1340:0.36842105 1341:0.1 
1 1:1 1315:1 1338:0.00012718384 1340:0.052631579 
1 1:1 1338:0.00018409832 1339:0.033333333 1342:0.058823529 
1 1:1 1338:2.5086609e-05 1339:0.033333333 1342:0.058823529 
1 1:1 1255:1 1338:8.5282341e-09 1339:0.1 1341:0.05 
1 5:1 1251:1 1338:3.4384948e-06 1339:0.066666667 1340:0.052631579 
1 46:1 1338:4.8476043e-06 1341:0.05 1342:0.058823529 
1 1:1 1338:7.1800094e-05 1342:0.058823529 
1 2:1 1264:1 1338:9.4592943e-05 1339:0.066666667 1342:0.11764706 
1 1:1 1338:7.2082195e-05 1342:0.058823529 
1 7:1 1240:1 1338:0.0087646698 1339:0.033333333 1340:0.31578947 1341:0.1 1342:0.058823529 
1 2:1 1276:1 1338:1.7034172e-07 1340:0.052631579 
1 1:1 1338:6.2319875e-05 1342:0.058823529 
1 12:1 1260:1 1338:0.0022757205 1339:0.066666667 1340:0.10526316 
0.6482769863230596 7:1 1252:1 1338:0.00028354087 1340:0.052631579 1341:0.1 
1 13:1 1263:1 1338:0.0002135802 1339:0.23333333 1340:0.26315789 1341:0.15 1342:0.058823529 
1 1:1 1238:1 1338:4.1720233e-05 1340:0.052631579 1341:0.05 1342:0.058823529 
1 2:1 1277:1 1338:7.5778655e-07 1339:0.066666667 
1 213:1 1251:1 1338:8.6235496e-07 1339:0.1 1340:0.052631579 
1 3:1 1255:1 1338:4.0372549e-07 1339:0.1 1341:0.05 
1 5:1 1283:1 1338:0.00027433183 1342:0.11764706 
1 1:1 1342:0.11764706 
1 5:1 1338:0.00051354188 1341:0.05 1342:0.058823529 
0.001202330571793835 592:1 1338:1.1986349e-06 1342:0.058823529 
1 213:1 1251:1 1338:8.4267871e-07 1339:0.1 1340:0.052631579 
1 7:1 1334:1 1338:0.015687235 1339:0.033333333 1341:0.05 
1 5:1 1245:1 1338:6.831868e-05 1342:0.058823529 
1 1:1 1277:1 1338:0.0001248616 1339:0.16666667 1341:0.05 
1 1:1 1285:1 1338:9.4610501e-05 1339:0.13333333 1340:0.31578947 1341:0.1 
1 1:1 1338:6.3874021e-05 1342:0.11764706 
1 7:1 1338:0.020457543 1342:0.058823529 
1 1:1 1338:4.9525183e-05 1342:0.058823529 
1 1:1 1268:1 1338:0.00024942114 1342:0.29411765 
1 31:1 1334:1 1338:0.00021540993 1339:0.066666667 1340:0.10526316 1341:0.05 
1 48:1 1332:1 1338:0.0002004421 1342:0.058823529 
1 1:1 1330:1 1338:0.00019416069 1341:0.2 1342:0.17647059 
1 7:1 1333:1 1338:4.6977527e-05 1339:0.033333333 1342:0.058823529 
1 5:1 1251:1 1338:2.6081904e-06 1339:0.066666667 1340:0.052631579 
1 1:1 1244:1 1338:0.00012486934 1342:0.11764706 
1 1:1 1338:3.6009772e-06 1342:0.058823529 
1 2:1 1278:1 1338:1.0958948e-05 1342:0.058823529 
1 1:1 1313:1 1338:8.4007899e-05 1339:0.1 
1 3:1 1255:1 1338:9.721072e-08 1339:0.1 1341:0.05 
1 1:1 1251:1 1338:6.7501251e-08 1341:0.05 1342:0.058823529 
1 5:1 1251:1 1338:2.3702917e-06 1339:0.066666667 1340:0.052631579 
1 5:1 1283:1 1338:0.00020650333 1342:0.11764706 
1 5:1 1251:1 1338:2.3816626e-06 1339:0.066666667 1340:0.052631579 
1 1:1 1338:2.9187519e-05 1342:0.058823529 
1 264:1 1260:1 1338:4.1782773e-07 1340:0.10526316 
1 5:1 1276:1 1338:0.0073751447 1340:0.052631579 
1 2:1 1338:6.9713576e-06 1342:0.058823529 
1 1:1 1338:2.9347827e-05 1342:0.058823529 
1 1:1 1251:1 1338:1.8661783e-06 1341:0.05 1342:0.058823529 
1 5:1 1268:1 1338:0.0061409534 1341:0.05 
1 1:1 1252:1 1338:0.00019233882 1342:0.11764706 
1 1:1 1338:6.8515721e-06 1342:0.058823529 
1 5:1 1334:1 1338:5.0627053e-05 1339:0.033333333 
1 5:1 1251:1 1338:2.3117646e-06 1339:0.066666667 1340:0.052631579 
1 1:1 1285:1 1338:0.00041665423 1339:0.033333333 1340:0.36842105 1341:0.1 
1 1:1 1251:1 1338:2.5219047e-06 1341:0.05 1342:0.058823529 
1 2:1 1253:1 1338:1.3812395e-07 1340:0.052631579 
1 1:1 1285:1 1338:0.00033126203 1339:0.033333333 1340:0.36842105 1341:0.15 
1 12:1 1242:1 1338:7.2512341e-05 1342:0.11764706 
1 1:1 1313:1 1338:5.7301651e-05 1339:0.1 
1 5:1 1283:1 1338:0.00025624595 1342:0.11764706 
1 1:1 1262:1 1338:9.7660208e-05 1342:0.058823529 
1 1:1 1288:1 1338:8.2524042e-05 1339:0.033333333 
1 12:1 1334:1 1338:0.00050018834 1339:0.066666667 1341:0.05 
1 5:1 1283:1 1338:0.0002625768 1342:0.11764706 
1 1:1 1338:5.8370634e-05 1339:0.033333333 1340:0.052631579 1342:0.058823529 
1 1:1 1338:0.00020015108 1341:0.1 1342:0.29411765 
1 3:1 1255:1 1338:3.6303522e-07 1339:0.1 1341:0.05 
1 3:1 1278:1 1338:1.7095486e-07 1342:0.058823529 
0.2355703104220722 280:1 1238:1 1338:3.7618988e-07 1342:0.11764706 
1 10:1 1242:1 1338:5.4223961e-07 1342:0.058823529 
1 12:1 1342:0.17647059 
1 1:1 1338:0.00020838796 1341:0.1 1342:0.29411765 
1 74:1 1253:1 1338:5.9859842e-06 1340:0.052631579 
1 1:1 1244:1 1338:0.00021866102 1341:0.2 1342:0.17647059 
1 5:1 1247:1 1338:0.00023479811 1342:0.058823529 
1 1:1 1277:1 1338:0.00012517781 1339:0.16666667 1341:0.05 
1 1:1 1285:1 1338:0.00037297552 1339:0.033333333 1340:0.42105263 1341:0.15 
1 5:1 1283:1 1338:0.00014231861 1342:0.11764706 
1 1:1 1255:1 1338:2.396824e-09 1339:0.1 1341:0.05 
1 1:1 1338:3.5620817e-05 1342:0.058823529 
1 1:1 1338:6.6238738e-06 1342:0.058823529 
1 1:1 1289:1 1338:0.00011685108 1339:0.13333333 1341:0.05 1342:0.058823529 
1 12:1 1242:1 1338:9.8874562e-06 1342:0.058823529 
1 1:1 1277:1 1338:0.00012941958 1339:0.23333333 1341:0.05 
1 5:1 1338:8.3541187e-05 1342:0.058823529 
1 1:1 1338:3.9318782e-05 1342:0.058823529 
1 5:1 1276:1 1338:0.00010479494 1340:0.052631579 
1 17:1 1342:0.11764706 
1 1:1 1285:1 1338:0.00035151123 1339:0.033333333 1340:0.36842105 1341:0.1 
1 2:1 1252:1 1338:3.7100605e-07 1340:0.052631579 1341:0.1 
1 170:1 1338:1.3984074e-06 1340:0.052631579 
1 1:1 1260:1 1338:4.2919871e-09 1340:0.10526316 
1 1:1 1289:1 1338:0.00011536237 1339:0.13333333 1341:0.05 1342:0.058823529 
1 1:1 1251:1 1338:2.1508987e-06 1341:0.05 1342:0.058823529 
1 48:1 1338:0.00023397338 1340:0.052631579 
1 5:1 1276:1 1338:2.7040633e-05 1340:0.052631579 
1 5:1 1251:1 1338:2.4104245e-06 1339:0.066666667 1340:0.052631579 
1 12:1 1242:1 1338:6.302822e-05 1342:0.11764706 
1 3:1 1338:8.5561041e-08 1342:0.058823529 
1 1:1 1338:0.00013925898 1342:0.058823529 
1 1:1 1283:1 1338:1.3027407e-05 1342:0.11764706 
1 2:1 1338:0.00011880755 1342:0.17647059 
1 1:1 1315:1 1338:0.00013596335 1340:0.052631579 
1 1:1 1338:3.3716624e-06 1342:0.058823529 
1 17:1 1338:0.0029657495 1342:0.058823529 
1 12:1 1242:1 1338:8.5365393e-06 1342:0.11764706 
1 13:1 1263:1 1338:0.00037585683 1339:0.23333333 1340:0.26315789 1341:0.15 1342:0.058823529 
1 5:1 1251:1 1338:2.9924626e-06 1339:0.066666667 1340:0.052631579 
1 1:1 1285:1 1338:0.00035638292 1339:0.033333333 1340:0.42105263 1341:0.15 
1 3:1 1252:1 1338:2.050678e-07 1340:0.052631579 1341:0.1 
1 1:1 1277:1 1338:8.7872694e-05 1339:0.1 1341:0.05 
1 7:1 1338:0.00032834008 1342:0.058823529 
1 1:1 1338:6.4277021e-05 1342:0.058823529 
1 1:1 1268:1 1338:6.0004934e-05 1340:0.052631579 
1 1:1 1268:1 1338:0.000215382 1342:0.29411765 
1 1:1 1288:1 1338:7.5196951e-05 1339:0.033333333 
1 5:1 1251:1 1338:3.0203326e-06 1339:0.066666667 1340:0.052631579 
1 10:1 1260:1 1338:9.6954762e-05 1340:0.10526316 
1 5:1 1251:1 1338:2.6138759e-06 1339:0.066666667 1340:0.052631579 
1 17:1 1338:0.0050837618 1341:0.05 1342:0.058823529 
1 2:1 1289:1 1338:3.1042828e-05 1340:0.10526316 1341:0.05 1342:0.058823529 
1 1:1 1244:1 1338:0.00013658898 1342:0.058823529 
1 1:1 1288:1 1338:7.9802365e-05 1339:0.033333333 
1 1:1 1288:1 1338:7.6479419e-05 1339:0.033333333 
1 5:1 1251:1 1338:2.3025117e-06 1339:0.066666667 1340:0.052631579 
1 2:1 1294:1 1338:5.1615883e-06 1340:0.52631579 
1 1:1 1268:1 1338:0.00020679758 1342:0.058823529 
1 1:1 1338:2.1544382e-05 1339:0.033333333 1342:0.058823529 
1 2:1 1334:1 1338:1.1986349e-06 1339:0.066666667 1341:0.05 
1 2:1 1252:1 1338:1.5395413e-07 1340:0.052631579 1341:0.1 
1 3:1 1255:1 1338:3.7290121e-07 1339:0.1 1341:0.05 
1 1:1 1338:0.00018068435 1341:0.1 1342:0.29411765 
1 2:1 1242:1 1338:6.6369727e-07 1342:0.058823529 
1 7:1 1333:1 1338:0.0010730637 1339:0.033333333 1342:0.058823529 
1 1:1 1277:1 1338:0.00014273092 1339:0.16666667 1341:0.05 
1 1:1 1338:9.2814499e-06 1342:0.058823529 
1 5:1 1276:1 1338:0.00020716586 1340:0.10526316 
1 5:1 1338:0.00012739833 1342:0.17647059 
1 5:1 1338:0.00031030264 1342:0.058823529 
1 1:1 1338:0.00014383196 1342:0.058823529 
1 3:1 1251:1 1338:1.3628452e-07 1341:0.05 1342:0.058823529 
1 10:1 1242:1 1338:4.5662283e-07 1342:0.058823529 
1 1:1 1288:1 1338:7.9697072e-05 1339:0.033333333 
1 5:1 1251:1 1338:2.9599104e-06 1339:0.066666667 1340:0.052631579 
1 1:1 1260:1 1338:2.5606998e-07 1340:0.10526316 
1 1:1 1338:1.8793274e-05 1342:0.058823529 
1 1:1 1260:1 1338:5.0110343e-08 1340:0.10526316 
1 1:1 1277:1 1338:8.7523148e-05 1339:0.23333333 1341:0.05 
1 5:1 1338:0.00044785386 1342:0.058823529 
1 5:1 1283:1 1338:0.00067907925 1342:0.11764706 
1 1:1 1338:0.00019820006 1339:0.033333333 1342:0.058823529 
1 5:1 1251:1 1338:2.5686149e-06 1339:0.066666667 1340:0.052631579 
1 5:1 1276:1 1338:1.969186e-05 1340:0.052631579 
1 6:1 1338:0.0001760281 1342:0.11764706 
1 1:1 1251:1 1338:3.009965e-09 1341:0.05 1342:0.058823529 
1 1:1 1338:2.4932543e-05 1342:0.058823529 
1 12:1 1245:1 1338:0.012527406 1340:0.052631579 
1 13:1 1297:1 1338:0.00023118532 1339:0.23333333 1340:0.26315789 1341:0.15 1342:0.058823529 
1 1:1 1338:4.6591471e-06 1342:0.058823529 
1 5:1 1338:0.00015988499 1342:0.058823529 
1 8:1 1263:1 1338:1.3776721e-06 1341:0.05 
1 1:1 1313:1 1338:8.2557486e-05 1339:0.1 
1 1:1 1313:1 1338:7.1371788e-05 1339:0.033333333 
1 3:1 1255:1 1338:2.5959276e-06 1339:0.1 1341:0.05 
1 1:1 1338:0.00035292274 1342:0.058823529 
1 7:1 1338:0.0034703335 1342:0.058823529 
1 5:1 1338:0.0001182021 1342:0.058823529 
1 1:1 1338:3.6370521e-05 1342:0.058823529 
1 5:1 1251:1 1338:3.4672567e-06 1339:0.066666667 1340:0.052631579 
1 10:1 1260:1 1338:3.3819743e-06 1340:0.10526316 
1 1:1 1251:1 1338:1.1590037e-06 1341:0.05 1342:0.058823529 
1 5:1 1251:1 1338:2.278209e-06 1339:0.066666667 1340:0.052631579 
0.02106242631210827 1:1 1296:1 1338:0.00028641595 1340:0.15789474 1342:0.058823529 
0.2361163205629329 1030:1 1338:0.00011478356 1342:0.11764706 
1 2:1 1338:1.6982222e-05 1342:0.17647059 
1 170:1 1248:1 1338:5.5740092e-11 1339:0.066666667 
1 5:1 1334:1 1338:8.0788073e-05 1339:0.033333333 
1 1:1 1285:1 1338:6.849571e-05 1339:0.13333333 1340:0.31578947 1341:0.1 
1 1:1 1288:1 1338:7.4417928e-05 1339:0.033333333 
1 5:1 1245:1 1338:5.146321e-05 1342:0.058823529 
1 1:1 1277:1 1338:0.00013115855 1339:0.16666667 1341:0.05 
1 13:1 1263:1 1338:0.0002259448 1339:0.23333333 1340:0.26315789 1341:0.15 1342:0.058823529 
1 2:1 1239:1 1338:5.6347324e-05 1342:0.17647059 
0.05905365490954394 1:1 1289:1 1338:0.00018973688 1339:0.066666667 1341:0.05 1342:0.058823529 
1 1:1 1277:1 1338:9.6830573e-05 1339:0.23333333 1341:0.05 
1 1:1 1313:1 1338:7.6391294e-05 1339:0.066666667 
1 3:1 1255:1 1338:1.0194863e-07 1339:0.1 1341:0.05 
1 5:1 1276:1 1338:5.9941947e-05 1340:0.052631579 
1 1:1 1296:1 1338:0.00028437374 1340:0.15789474 1342:0.058823529 
1 1:1 1338:0.00023914673 1341:0.1 1342:0.29411765 
1 2:1 1260:1 1338:6.0496561e-05 1339:0.033333333 
1 5:1 1245:1 1338:4.3740253e-05 1342:0.058823529 
1 1:1 1338:6.063541e-05 1342:0.058823529 
1 3:1 1252:1 1338:2.6788688e-07 1340:0.052631579 1341:0.1 
1 1:1 1291:1 1338:7.483531e-05 1341:0.05 
1 291:1 1338:2.4915821e-08 1340:0.052631579 
1 2:1 1238:1 1338:1.3984074e-06 1340:0.10526316 1342:0.11764706 
1 6:1 1338:9.8744688e-06 1342:0.11764706 
1 5:1 1283:1 1338:0.00019848016 1342:0.11764706 
1 2:1 1238:1 1338:4.9086955e-06 1340:0.052631579 1342:0.11764706 
1 1:1 1251:1 1338:2.3531795e-06 1341:0.05 1342:0.058823529 
1 2:1 1253:1 1338:1.5981799e-06 1340:0.052631579 
1 5:1 1338:0.0002964345 1342:0.058823529 
1 1:1 1288:1 1338:6.4734369e-05 1339:0.033333333 
1 5:1 1338:9.7848443e-05 1342:0.058823529 
1 1:1 1277:1 1338:1.6320142e-05 1339:0.066666667 1341:0.05 
1 2:1 1277:1 1338:8.0562827e-06 1339:0.033333333 
1 46:1 1338:2.1509544e-06 1341:0.1 
1 1:1 1285:1 1338:0.00035563026 1339:0.033333333 1340:0.36842105 1341:0.1 
1 5:1 1338:0.00018988565 1342:0.058823529 
1 1:1 1288:1 1338:6.3254804e-05 1339:0.033333333 
1 5:1 1251:1 1338:2.9203349e-06 1339:0.066666667 1340:0.052631579 
1 3:1 1338:3.3834236e-08 1342:0.17647059 
1 8:1 1263:1 1338:5.7858215e-07 1341:0.05 
1 5:1 1276:1 1338:0.0014037782 1340:0.052631579 
1 1:1 1338:4.9602383e-05 1342:0.058823529 
1 13:1 1263:1 1338:0.00021843684 1339:0.23333333 1340:0.26315789 1341:0.15 1342:0.058823529 
1 1:1 1338:2.3816961e-05 1339:0.033333333 1342:0.058823529 
1 6:1 1260:1 1339:0.1 
1 10:1 1242:1 1338:7.1347318e-07 1342:0.058823529 
1 2:1 1338:1.9977249e-06 1342:0.058823529 
1 5:1 1338:0.00044070993 1342:0.058823529 
1 2:1 1338:2.8367693e-05 1342:0.17647059 
1 696:1 1276:1 1338:2.254631e-06 1340:0.052631579 
1 652:1 1338:8.753424e-07 1341:0.05 
1 1:1 1288:1 1338:7.6793571e-05 1339:0.033333333 
0.3285441929787402 1:1 1313:1 1338:7.9516307e-05 1339:0.033333333 
1 2:1 1245:1 1338:3.3834236e-08 1342:0.058823529 
1 3:1 1255:1 1338:1.6499067e-08 1339:0.1 1341:0.05 
1 1:1 1268:1 1338:0.00024304787 1342:0.058823529 
1 1:1 1278:1 1338:6.9675115e-09 1342:0.058823529 
1 1:1 1247:1 1338:1.2552836e-05 1342:0.058823529 
1 1:1 1252:1 1338:7.507633e-07 1340:0.052631579 1341:0.1 
1 1:1 1238:1 1338:5.4872497e-05 1340:0.052631579 1341:0.05 1342:0.058823529 
1 5:1 1251:1 1338:1.0087842e-06 1339:0.066666667 1340:0.052631579 
1 1:1 1338:7.0642596e-05 1342:0.058823529 
1 1:1 1338:0.00014041108 1342:0.058823529 
1 2:1 1308:1 1338:6.3404912e-06 1340:0.10526316 1341:0.05 1342:0.058823529 
1 1:1 1338:0.00021264338 1341:0.1 1342:0.29411765 
1 1:1 1288:1 1338:5.149671e-05 1339:0.033333333 
1 1:1 1277:1 1338:5.4504167e-05 1339:0.066666667 1341:0.05 
1 2:1 1253:1 1338:2.3116531e-06 1340:0.052631579 
1 1:1 1285:1 1338:4.522333e-05 1339:0.13333333 1340:0.31578947 1341:0.1 
1 1:1 1313:1 1338:7.5359434e-05 1339:0.066666667 
1 1:1 1251:1 1338:2.4717944e-06 1341:0.05 1342:0.058823529 
1 1:1 1315:1 1338:0.00014984118 1340:0.052631579 
1 1:1 1338:0.00025437872 1341:0.1 1342:0.29411765 
1 1:1 1255:1 1338:8.5282341e-09 1339:0.1 1341:0.05 
1 7:1 1334:1 1338:0.0050032673 1339:0.033333333 1341:0.05 
0.0007662351271563077 685:1 1338:0.00083610138 1342:0.058823529 
1 5:1 1283:1 1338:9.9914895e-05 1342:0.17647059 
1 5:1 1251:1 1338:2.7608068e-06 1339:0.066666667 1340:0.052631579 
1 1:1 1338:6.0567407e-05 1339:0.033333333 1340:0.052631579 1342:0.058823529 
1 2:1 1338:6.9633756e-05 1342:0.17647059 
1 17:1 1338:0.010278818 1342:0.11764706 
1 5:1 1338:0.0001817248 1342:0.058823529 
1 5:1 1283:1 1338:0.00070224355 1342:0.11764706 
1 5:1 1251:1 1338:2.3308277e-06 1339:0.066666667 1340:0.052631579 
1 1:1 1251:1 1338:6.7222551e-08 1341:0.05 1342:0.058823529 
1 1:1 1338:4.2807833e-06 1342:0.058823529 
1 5:1 1251:1 1338:2.7320449e-06 1339:0.066666667 1340:0.052631579 
1 1:1 1313:1 1338:8.1130763e-05 1339:0.1 
1 12:1 1342:0.11764706 
1 5:1 1276:1 1338:0.00063017908 1340:0.10526316 
1 1:1 1285:1 1338:7.3475642e-05 1339:0.13333333 1340:0.31578947 1341:0.1 
1 2:1 1260:1 1338:5.4709123e-05 1339:0.1 
1 412:1 1263:1 1338:0.0001094464 1341:0.05 
1 1:1 1277:1 1338:1.2884768e-05 1339:0.066666667 1341:0.05 
1 1:1 1338:7.2653531e-05 1342:0.058823529 
0.2231317475155972 1252:1 1338:0.00027127761 1340:0.052631579 1341:0.1 
1 5:1 1283:1 1338:0.00010138214 1342:0.11764706 
1 1:1 1285:1 1338:0.00035188937 1339:0.033333333 1340:0.36842105 1341:0.15 
1 3:1 1260:1 1338:1.5317377e-07 1340:0.10526316 
1 2:1 1253:1 1338:1.4554853e-06 1340:0.052631579 
1 5:1 1283:1 1338:0.00013895966 1342:0.11764706 
1 1:1 1254:1 1338:3.7430252e-05 1339:0.2 1340:0.10526316 1341:0.25 
1 2:1 1263:1 1338:1.6636411e-05 1340:0.31578947 
1 8:1 1263:1 1338:1.1493607e-06 1341:0.05 
1 10:1 1260:1 1338:3.158791e-07 1339:0.1 
1 6:1 1338:1.0045702e-05 1342:0.11764706 
1 9:1 1291:1 1338:6.8437685e-07 1340:0.47368421 1341:0.9 
1 1:1 1288:1 1338:6.9555497e-05 1339:0.033333333 
1 17:1 1339:0.033333333 1342:0.11764706 
1 5:1 1276:1 1338:6.6179709e-05 1340:0.052631579 
1 1:1 1338:0.00018670506 1341:0.1 1342:0.29411765 
1 2:1 1338:0.00053883969 1339:0.033333333 1342:0.058823529 
1 5:1 1251:1 1338:2.4087523e-06 1339:0.066666667 1340:0.052631579 
1 1:1 1252:1 1338:0.00016713209 1342:0.11764706 
1 1:1 1338:2.2003736e-05 1341:0.1 
1 11:1 1319:1 1338:7.6484325e-06 1342:0.058823529 
0.2627002745775466 1255:1 1338:4.4592074e-10 1339:0.1 1341:0.05 
1 3:1 1252:1 1338:2.050678e-07 1340:0.052631579 1341:0.1 
1 3:1 1252:1 1338:2.0512354e-07 1340:0.052631579 1341:0.1 
1 3:1 1251:1 1338:1.3188106e-07 1341:0.05 1342:0.058823529 
1 1:1 1251:1 1338:2.2017336e-08 1341:0.05 1342:0.058823529 
1 1:1 1285:1 1338:0.00040698299 1339:0.033333333 1340:0.36842105 1341:0.1 
1 5:1 1251:1 1338:2.6999386e-06 1339:0.066666667 1340:0.052631579 
1 12:1 1342:0.17647059 
1 1:1 1338:5.8320858e-05 1339:0.033333333 1340:0.052631579 1342:0.058823529 
1 1:1 1338:5.9094698e-05 1339:0.033333333 1340:0.052631579 1342:0.058823529 
1 1:1 1285:1 1338:0.00030684703 1339:0.033333333 1340:0.42105263 1341:0.15 
1 1:1 1315:1 1338:0.00012607539 1340:0.052631579 
1 5:1 1338:0.00012148999 1342:0.058823529 
1 1:1 1313:1 1338:4.4472734e-05 1339:0.1 
1 3:1 1251:1 1338:1.7725349e-07 1341:0.05 1342:0.058823529 
1 1:1 1285:1 1338:0.00032175154 1339:0.033333333 1340:0.42105263 1341:0.15 
1 1260:1 1338:1.724041e-07 1339:0.033333333 
1 9:1 1260:1 1338:4.8939801e-08 1339:0.1 
1 1:1 1285:1 1338:0.00046067564 1339:0.033333333 1340:0.36842105 1341:0.1 
1 56:1 1332:1 1338:3.5974655e-07 1342:0.058823529 
1 9:1 1251:1 1338:4.5762615e-08 1339:0.066666667 1341:0.05 
1 1:1 1258:1 1338:6.6628417e-05 1339:0.033333333 
1 7:1 1338:0.00050244587 1342:0.058823529 
1 1:1 1313:1 1338:7.6492351e-05 1339:0.033333333 
1 48:1 1338:0.00080012706 1342:0.058823529 
1 1:1 1260:1 1338:3.2830914e-08 1340:0.10526316 
1 10:1 1242:1 1338:2.5114256e-06 1342:0.058823529 
1 1:1 1342:0.11764706 
1 7:1 1263:1 1338:0.00052055003 1341:0.05 
1 7:1 1338:0.0050142048 1342:0.058823529 
1 213:1 1251:1 1338:2.7925786e-07 1339:0.1 1340:0.052631579 
1 1:1 1285:1 1338:8.7571475e-05 1339:0.1 1340:0.31578947 1341:0.1 
1 2:1 1319:1 1338:0.00023933831 1339:0.033333333 1342:0.058823529 
1 1:1 1338:5.8961089e-05 1339:0.033333333 1340:0.052631579 1342:0.058823529 
1 11:1 1319:1 1338:8.1335942e-06 1342:0.058823529 
1 5:1 1251:1 1338:2.8338263e-06 1339:0.066666667 1340:0.052631579 
1 5:1 1334:1 1338:0.00049396463 1339:0.033333333 
1 12:1 1338:1.1820913e-05 1342:0.058823529 
1 1:1 1338:0.00019274617 1341:0.1 1342:0.29411765 
1 5:1 1338:0.001321888 1342:0.058823529 
1 1:1 1288:1 1338:7.9243515e-05 1339:0.033333333 
1 17:1 1245:1 1338:0.0070043351 1342:0.058823529 
1 1:1 1251:1 1338:1.960379e-07 1341:0.05 1342:0.058823529 
1 1:1 1313:1 1338:0.00010333165 1339:0.066666667 
1 5:1 1283:1 1338:0.00010313333 1342:0.11764706 
1 12:1 1260:1 1338:0.0024660808 1339:0.13333333 1340:0.10526316 
1 7:1 1333:1 1338:1.693005e-05 1339:0.033333333 1342:0.058823529 
1 5:1 1251:1 1338:2.9298107e-06 1339:0.066666667 1340:0.052631579 
1 1:1 1262:1 1338:8.8333609e-05 1342:0.058823529 
1 3:1 1255:1 1338:3.9424967e-07 1339:0.1 1341:0.05 
1 1:1 1338:1.1708206e-06 1341:0.1 
1 3:1 1278:1 1338:1.6593825e-07 1342:0.058823529 
0.000772394453134012 703:1 1338:0.00083610138 1342:0.058823529 
0.6407359134146471 1:1 1313:1 1338:7.1393415e-05 1339:0.1 1340:0.052631579 
1 1:1 1338:0.00011813817 1342:0.058823529 
1 2:1 1251:1 1338:9.2082632e-08 1339:0.066666667 1340:0.15789474 
1 48:1 1338:0.0076513324 1339:0.033333333 
1 2:1 1242:1 1338:1.3413296e-06 1342:0.11764706 
1 1:1 1268:1 1338:0.00020969032 1342:0.29411765 
1 12:1 1330:1 1338:0.0025020622 1339:0.066666667 
1 5:1 1338:0.00010456864 1341:0.05 1342:0.058823529 
1 5:1 1338:8.7574373e-06 1342:0.11764706 
1 12:1 1338:1.2408302e-06 1342:0.058823529 
1 1:1 1338:1.1100026e-05 1339:0.033333333 1342:0.058823529 
1 162:1 1289:1 1338:1.407716e-06 1340:0.10526316 1341:0.05 1342:0.058823529 
1 1:1 1260:1 1338:3.620319e-07 1340:0.10526316 
1 8:1 1263:1 1338:1.2064385e-06 1341:0.05 
1 1:1 1277:1 1338:0.00013109317 1339:0.16666667 1341:0.05 
1 1:1 1313:1 1338:7.9160406e-05 1339:0.033333333 
1 5:1 1338:0.00047841097 1342:0.058823529 
1 1:1 1251:1 1338:1.4265004e-06 1341:0.05 1342:0.058823529 
1 2:1 1338:1.8520036e-05 1341:0.1 
1 2:1 1247:1 1338:2.7968149e-06 1339:0.033333333 1342:0.058823529 
1 1:1 1268:1 1338:0.00025670514 1342:0.058823529 
1 2:1 1251:1 1338:1.4826864e-08 1339:0.066666667 1340:0.15789474 
1 1:1 1244:1 1338:0.00020651364 1341:0.2 1342:0.17647059 
1 1:1 1251:1 1338:1.6375324e-06 1341:0.05 1342:0.058823529 
1 7:1 1338:0.037418757 1342:0.058823529 
1 7:1 1338:0.040688062 1342:0.058823529 
1 6:1 1242:1 1338:3.8242162e-06 1342:0.058823529 
1 7:1 1338:0.0015821434 1342:0.058823529 
1 2:1 1260:1 1338:0.00031512683 1339:0.1 
1 1:1 1251:1 1338:4.4592074e-09 1341:0.05 1342:0.058823529 
1 10:1 1242:1 1338:4.708923e-06 1342:0.058823529 
1 5:1 1338:0.00012833983 1342:0.058823529 
1 2:1 1260:1 1338:0.00024801593 1339:0.033333333 
1 41:1 1338:6.0500296e-07 1342:0.058823529 
1 1:1 1338:0.00038230056 1342:0.11764706 
1 2:1 1245:1 1338:7.3298221e-08 1342:0.058823529 
1 2:1 1242:1 1338:8.6581085e-07 1342:0.058823529 
1 5:1 1251:1 1338:2.9867771e-06 1339:0.066666667 1340:0.052631579 
1 1:1 1255:1 1338:7.9150931e-09 1339:0.1 1341:0.05 
1 97:1 1242:1 1338:5.7969696e-09 1342:0.11764706 
1 7:1 1338:0.00067126901 1341:0.1 1342:0.17647059 
1 5:1 1338:0.00053019039 1342:0.11764706 
1 2:1 1334:1 1338:6.2317423e-08 1339:0.066666667 1340:0.052631579 
1 12:1 1255:1 1338:1.0130483e-05 1339:0.1 1341:0.05 
1 5:1 1283:1 1338:0.00011123415 1342:0.11764706 
1 1:1 1338:3.3471591e-05 1342:0.058823529 
1 48:1 1338:0.0019491204 1342:0.058823529 
1 48:1 1338:0.0029778217 1340:0.052631579 1342:0.058823529 
1 5:1 1251:1 1338:3.4328093e-06 1339:0.066666667 1340:0.052631579 
1 5:1 1251:1 1338:3.1503185e-06 1339:0.066666667 1340:0.052631579 
1 3:1 1255:1 1338:2.0122173e-08 1339:0.1 1341:0.05 
1 2:1 1260:1 1338:5.8991411e-06 1339:0.033333333 
1 3:1 1255:1 1338:4.0038108e-07 1339:0.1 1341:0.05 
1 5:1 1251:1 1338:2.2954885e-06 1339:0.066666667 1340:0.052631579 
1 3:1 1251:1 1338:9.6709059e-08 1341:0.05 1342:0.058823529 
1 2:1 1313:1 1338:4.1381444e-06 1340:0.052631579 
1 1:1 1338:0.00016424286 1342:0.11764706 
1 5:1 1283:1 1338:0.00019255002 1342:0.11764706 
1 5:1 1338:0.00079462545 1341:0.05 1342:0.058823529 
1 1:1 1277:1 1338:0.00011967035 1339:0.23333333 1341:0.05 
1 1:1 1288:1 1338:8.090312e-05 1339:0.033333333 
1 17:1 1268:1 1338:0.0051870327 1340:0.052631579 
1 5:1 1251:1 1338:2.3990536e-06 1339:0.066666667 1340:0.052631579 
1 5:1 1251:1 1338:2.2996132e-06 1339:0.066666667 1340:0.052631579 
1 12:1 1242:1 1338:0.00013822573 1342:0.11764706 
1 2:1 1338:6.1267279e-06 1342:0.17647059 
1 7:1 1240:1 1338:0.00030593819 1339:0.033333333 
1 7:1 1338:0.00042133963 1342:0.058823529 
1 10:1 1260:1 1338:0.0012635265 1339:0.1 
1 7:1 1338:0.0011335044 1340:0.052631579 1341:0.1 1342:0.17647059 
1 5:1 1283:1 1338:0.00017140953 1342:0.11764706 
1 1:1 1277:1 1338:0.00014087768 1339:0.16666667 1341:0.05 
1 1:1 1285:1 1338:0.0003601087 1339:0.033333333 1340:0.42105263 1341:0.15 
1 2:1 1251:1 1338:1.1504755e-07 1339:0.033333333 
1 3:1 1251:1 1338:1.9904787e-07 1341:0.05 1342:0.058823529 
1 1:1 1255:1 1338:8.5282341e-09 1339:0.1 1341:0.05 
1 1:1 1255:1 1338:3.1102971e-08 1339:0.1 1341:0.05 
1 5:1 1338:0.00049669149 1342:0.058823529 
1 1:1 1313:1 1338:7.0781221e-05 1339:0.033333333 
1 17:1 1338:0.0063914414 1342:0.11764706 
1 3:1 1278:1 1338:1.440101e-06 1342:0.058823529 
1 1:1 1244:1 1338:0.00020240259 1341:0.2 1342:0.17647059 
1 5:1 1251:1 1338:3.187107e-06 1339:0.066666667 1340:0.052631579 
1 7:1 1338:0.0017445866 1341:0.1 
0.2362759434599699 7:1 1246:1 1338:0.00067066534 1342:0.11764706 
1 1:1 1315:1 1338:0.00014978611 1340:0.052631579 
1 12:1 1291:1 1338:0.0003579923 1339:0.066666667 1340:0.36842105 
1 1:1 1276:1 1338:6.8250956e-06 1340:0.052631579 
1 1:1 1262:1 1338:9.7143275e-05 1342:0.058823529 
1 1:1 1247:1 1338:0.00014463344 1341:0.15 
1 1:1 1253:1 1338:0.00010552424 1340:0.052631579 
1 1:1 1338:0.00025205809 1342:0.058823529 
1 2:1 1338:2.5970424e-06 1342:0.058823529 
1 1:1 1338:6.9368043e-05 1342:0.058823529 
1 1:1 1288:1 1338:6.9473391e-05 1339:0.033333333 
1 1:1 1313:1 1338:7.1716707e-05 1339:0.033333333 
1 1:1 1338:0.0002039914 1341:0.25 
1 100:1 1260:1 1338:1.3879283e-08 1339:0.066666667 1340:0.10526316 
1 1148:1 1242:1 1338:9.8102562e-09 1342:0.17647059 
1 5:1 1251:1 1338:3.3112959e-06 1339:0.066666667 1340:0.052631579 
1 7:1 1268:1 1338:0.0072969011 1340:0.052631579 
1 5:1 1251:1 1338:3.367036e-06 1339:0.066666667 1340:0.052631579 
1 1:1 1338:5.8490587e-05 1339:0.033333333 1340:0.052631579 1342:0.058823529 
1 2:1 1338:0.00057868081 1342:0.058823529 
1 1:1 1277:1 1338:8.1323233e-05 1339:0.1 1341:0.05 
1 1:1 1338:0.00025155754 1342:0.058823529 
1 1:1 1251:1 1338:1.9397552e-08 1341:0.05 1342:0.058823529 
1 3:1 1251:1 1338:1.7474519e-07 1341:0.05 1342:0.058823529 
1 23:1 1239:1 1338:5.3677709e-08 1342:0.23529412 
1 1:1 1338:5.6975515e-05 1342:0.058823529 
1 1:1 1313:1 1338:6.4830688e-05 1339:0.033333333 
1 1:1 1283:1 1338:1.516699e-05 1342:0.11764706 
1 1:1 1313:1 1338:0.00010384273 1339:0.066666667 
1 13:1 1297:1 1338:0.00025163491 1339:0.23333333 1340:0.26315789 1341:0.15 1342:0.058823529 
1 1:1 1338:5.5620529e-05 1342:0.058823529 
1 5:1 1283:1 1338:0.00016112103 1342:0.11764706 
1 1:1 1338:4.219525e-06 1342:0.058823529 
1 1:1 1288:1 1338:7.7972139e-05 1339:0.033333333 
1 3:1 1251:1 1338:1.3539268e-07 1341:0.05 1342:0.058823529 
1 5:1 1276:1 1338:2.9201454e-05 1340:0.052631579 
1 2:1 1313:1 1338:1.0343131e-06 1339:0.066666667 
1 1:1 1285:1 1338:4.4994071e-05 1339:0.13333333 1340:0.31578947 1341:0.1 
1 1:1 1268:1 1338:0.00024426992 1342:0.29411765 
1 1:1 1277:1 1338:0.00012668708 1339:0.16666667 1341:0.05 
1 2:1 1334:1 1338:0.0021057955 1339:0.066666667 1340:0.052631579 1341:0.05 
1 1:1 1338:5.9855996e-05 1339:0.033333333 1340:0.052631579 1342:0.058823529 
1 5:1 1338:0.00010990798 1342:0.17647059 
1 1:1 1338:0.00025429795 1342:0.058823529 
1 1:1 1253:1 1338:9.2714613e-05 1339:0.033333333 
1 1:1 1338:2.790951e-05 1341:0.1 
1 1:1 1285:1 1338:0.00019755615 1339:0.1 1340:0.31578947 1341:0.1 
1 1:1 1277:1 1338:0.00011967035 1339:0.23333333 1341:0.05 
1 1:1 1277:1 1338:0.00012721622 1339:0.16666667 1341:0.05 
1 5:1 1283:1 1338:0.00011518211 1342:0.11764706 
1 3:1 1255:1 1338:4.5751467e-07 1339:0.1 1341:0.05 
1 6:1 1338:4.9543577e-05 1342:0.11764706 
1 12:1 1338:5.4746246e-06 1341:0.1 
1 12:1 1242:1 1338:7.4148815e-05 1342:0.058823529 
1 12:1 1242:1 1338:6.302822e-05 1342:0.11764706 
1 1:1 1288:1 1338:3.5194294e-05 1339:0.033333333 
1 1:1 1252:1 1338:7.7043955e-07 1340:0.052631579 1341:0.1 
1 1:1 1338:5.6877524e-05 1342:0.058823529 
1 2:1 1338:5.2095805e-06 1342:0.058823529 
1 2:1 1334:1 1338:5.06513e-05 1339:0.066666667 1341:0.05 
1 3:1 1278:1 1338:1.2708741e-07 1342:0.058823529 
1 1:1 1288:1 1338:9.1324567e-07 1342:0.17647059 
1 7:1 1338:0.00015876032 1342:0.058823529 
1 17:1 1338:0.005360257 1339:0.033333333 1342:0.11764706 
1 5:1 1283:1 1338:0.00011356587 1342:0.11764706 
1 17:1 1338:0.0050651353 1341:0.05 1342:0.058823529 
1 1:1 1338:1.9408143e-06 1342:0.058823529 
1 31:1 1334:1 1338:6.7370875e-05 1339:0.066666667 1340:0.10526316 1341:0.05 
1 5:1 1276:1 1338:1.8998787e-05 1340:0.052631579 
1 7:1 1333:1 1338:0.00013767178 1339:0.033333333 1342:0.058823529 
1 1:1 1285:1 1338:0.0003601087 1339:0.033333333 1340:0.42105263 1341:0.15 
1 1:1 1254:1 1338:3.8613113e-05 1339:0.2 1340:0.10526316 1341:0.25 
1 2:1 1338:1.7111595e-05 1342:0.058823529 
1 8:1 1263:1 1338:1.3776721e-06 1341:0.05 
1 1:1 1338:0.00013193552 1342:0.058823529 
1 7:1 1333:1 1338:0.00080343546 1339:0.033333333 1342:0.058823529 
0.9430391351057497 70:1 1248:1 1338:5.5740092e-11 1339:0.066666667 
1 1:1 1291:1 1338:7.4638826e-05 1341:0.05 
1 14:1 1263:1 1338:0.2296927 1339:0.033333333 
1 1:1 1253:1 1338:3.6932605e-05 1341:0.1 
1 5:1 1251:1 1338:2.9016062e-06 1339:0.066666667 1340:0.052631579 
1 1:1 1288:1 1338:0.00020487706 1342:0.17647059 
1 1:1 1326:1 1338:0.00019776791 1342:0.058823529 
1 2:1 1338:8.4760613e-06 1342:0.058823529 
1 1:1 1338:1.8503648e-05 1341:0.1 
1 5:1 1338:0.00020827012 1342:0.058823529 
1 5:1 1276:1 1338:0.0004001443 1340:0.10526316 
1 2:1 1319:1 1338:0.00082395316 1340:0.052631579 1342:0.11764706 
1 1:1 1268:1 1338:0.00026324345 1342:0.058823529 
1 1:1 1338:4.9578192e-05 1342:0.058823529 
1 1:1 1277:1 1338:0.00011796192 1339:0.16666667 1341:0.05 
1 1:1 1247:1 1338:0.00038334724 1341:0.05 
1 17:1 1342:0.11764706 
1 1:1 1338:0.00012832094 1342:0.11764706 
1 1:1 1338:0.00010890945 1342:0.058823529 
1 5:1 1283:1 1338:0.00016582181 1342:0.11764706 
1 1:1 1247:1 1338:0.00013495685 1342:0.058823529 
1 8:1 1263:1 1338:1.3776721e-06 1341:0.05 
1 2:1 1245:1 1338:0.0020732728 1342:0.058823529 
1 7:1 1338:0.00054603485 1342:0.058823529 
1 10:1 1260:1 1338:1.0653381e-05 1340:0.052631579 
1 6:1 1338:5.0913446e-05 1342:0.11764706 
1 1:1 1315:1 1338:0.00012774587 1340:0.052631579 
1 1:1 1338:0.00020215588 1341:0.1 1342:0.29411765 
1 1:1 1338:2.6130621e-05 1342:0.058823529 
1 5:1 1251:1 1338:2.9298107e-06 1339:0.066666667 1340:0.052631579 
1 1:1 1285:1 1338:0.00031597776 1339:0.033333333 1340:0.36842105 1341:0.1 
1 2:1 1238:1 1338:4.8801565e-06 1340:0.052631579 1342:0.11764706 
1 7:1 1245:1 1338:0.0040193834 1342:0.058823529 
1 5:1 1276:1 1338:0.00041125803 1341:0.05 
1 1:1 1338:0.00019694491 1341:0.1 1342:0.29411765 
1 1:1 1330:1 1338:0.00020489824 1341:0.2 1342:0.17647059 
1 1:1 1277:1 1338:0.00013115855 1339:0.16666667 1341:0.05 
1 5:1 1251:1 1338:2.2302726e-06 1339:0.066666667 1340:0.052631579 
0.0005065079896630681 289:1 1251:1 1338:8.7479615e-06 1339:0.1 1340:0.052631579 
1 1:1 1268:1 1338:0.00028631266 1342:0.058823529 
1 107:1 1338:3.4765095e-07 1342:0.058823529 
1 1:1 1244:1 1338:0.00022654139 1341:0.2 1342:0.17647059 
1 1:1 1338:7.6461471e-05 1342:0.11764706 
1 1:1 1288:1 1338:4.9309748e-05 1339:0.033333333 
1 917:1 1260:1 1338:2.1867953e-06 1340:0.052631579 
1 1:1 1255:1 1338:1.4492424e-08 1339:0.1 1341:0.05 
1 5:1 1276:1 1338:0.001575632 1340:0.052631579 
1 1338:5.4903991e-08 1342:0.058823529 
1 97:1 1242:1 1338:5.0166083e-09 1342:0.11764706 
1 1:1 1338:2.2003959e-06 1342:0.058823529 
1 2:1 1338:3.1963598e-06 1342:0.058823529 
1 2:1 1338:1.6837967e-06 1342:0.17647059 
1 5:1 1251:1 1338:3.2029372e-06 1339:0.066666667 1340:0.052631579 
1 9:1 1251:1 1338:3.4781817e-08 1339:0.066666667 1341:0.05 
1 1:1 1251:1 1338:9.2556423e-07 1341:0.05 1342:0.058823529 
1 5:1 1251:1 1338:2.6812099e-06 1339:0.066666667 1340:0.052631579 
1 3:1 1255:1 1338:2.5938094e-06 1339:0.1 1341:0.05 
1 1:1 1288:1 1338:5.3800058e-05 1339:0.033333333 
1 1:1 1338:3.2558902e-05 1342:0.058823529 
1 7:1 1338:0.0012974788 1341:0.1 1342:0.11764706 
1 5:1 1338:0.00013254927 1341:0.05 1342:0.058823529 
1 3:1 1255:1 1338:3.9213155e-07 1339:0.1 1341:0.05 
1 1:1 1285:1 1338:0.00038101786 1339:0.033333333 1340:0.36842105 1341:0.1 
1 1:1 1251:1 1338:9.2528553e-09 1341:0.05 1342:0.058823529 
1 1242:1 1338:1.2530373e-07 1342:0.058823529 
1 7:1 1338:0.0015195039 1342:0.058823529 
1 1:1 1342:0.11764706 
1 17:1 1341:0.05 1342:0.058823529 
1 5:1 1338:0.00025948551 1342:0.058823529 
1 5:1 1276:1 1338:2.5950023e-05 1340:0.052631579 
1 1:1 1313:1 1338:7.6896355e-05 1339:0.066666667 
1 2:1 1338:1.969186e-06 1342:0.17647059 
1 1:1 1338:0.00024167711 1339:0.033333333 1342:0.058823529 
1 2:1 1238:1 1338:1.5553715e-05 1340:0.052631579 1341:0.05 1342:0.058823529 
1 5:1 1338:0.00020737237 1342:0.058823529 
1 1:1 1338:1.5586045e-06 1342:0.058823529 
1 2:1 1264:1 1339:0.1 1342:0.058823529 
1 1:1 1338:1.299675e-05 1339:0.033333333 1342:0.058823529 
1 1:1 1338:0.00021958625 1341:0.1 1342:0.29411765 
1 2:1 1260:1 1338:7.0635517e-06 1339:0.033333333 
1 6:1 1338:5.0913446e-05 1342:0.11764706 
1 1:1 1338:0.00015941728 1342:0.11764706 
1 5:1 1283:1 1338:0.00015653836 1342:0.11764706 
1 1:1 1313:1 1338:7.1107747e-05 1339:0.033333333 
1 1:1 1251:1 1338:1.995551e-06 1341:0.05 1342:0.058823529 
1 1338:0.00013344724 1342:0.058823529 
1 1:1 1288:1 1338:7.7073386e-05 1339:0.033333333 
1 5:1 1245:1 1338:2.7280873e-05 1342:0.058823529 
1 1:1 1277:1 1338:0.00011768489 1339:0.16666667 1341:0.05 
1 3:1 1255:1 1338:4.6537403e-07 1339:0.1 1341:0.05 
1 213:1 1251:1 1338:9.1737043e-07 1339:0.1 1340:0.052631579 
1 5:1 1338:0.00016182112 1342:0.17647059 
1 1:1 1254:1 1338:3.8538867e-05 1339:0.2 1340:0.10526316 1341:0.25 
1 1:1 1338:1.2391691e-05 1339:0.033333333 1342:0.058823529 
1 1:1 1277:1 1338:0.0001224121 1339:0.16666667 1341:0.05 
1 48:1 1338:0.00064358235 1342:0.058823529 
1 3:1 1255:1 1338:1.9620512e-08 1339:0.1 1341:0.05 
1 10:1 1294:1 1338:0.0012635134 1339:0.1 
1 1:1 1338:0.00010291633 1339:0.033333333 1342:0.058823529 
1 1:1 1313:1 1338:7.923638e-05 1339:0.066666667 
1 1:1 1338:1.4727647e-06 1341:0.1 
1 13:1 1297:1 1338:0.00022431664 1339:0.23333333 1340:0.26315789 1341:0.15 1342:0.058823529 
1 1:1 1262:1 1338:0.00010699104 1340:0.052631579 
1 1:1 1338:7.0317018e-05 1342:0.058823529 
1 7:1 1338:0.02261364 1342:0.11764706 
1 41:1 1288:1 1338:5.2083542e-07 1339:0.033333333 
1 5:1 1283:1 1338:0.00011879891 1342:0.11764706 
1 1:1 1338:9.821315e-05 1339:0.033333333 1340:0.052631579 1342:0.058823529 
1 9:1 1251:1 1338:9.5761478e-08 1339:0.066666667 1341:0.05 
1 1:1 1260:1 1338:9.1971152e-09 1340:0.10526316 
1 1:1 1285:1 1338:0.00032429318 1339:0.033333333 1340:0.36842105 1341:0.1 
1 2:1 1338:2.6541202e-06 1342:0.17647059 
0.7609691312738445 901:1 1242:1 1338:2.3745279e-08 1342:0.17647059 
1 17:1 1245:1 1338:0.014587749 1340:0.052631579 
1 1:1 1285:1 1338:0.00015117399 1339:0.1 1340:0.31578947 1341:0.1 
1 1:1 1288:1 1338:0.0001326107 1339:0.033333333 
1 3:1 1255:1 1338:9.3866315e-08 1339:0.1 1341:0.05 
1 1:1 1244:1 1338:0.00012973144 1342:0.11764706 
1 1:1 1338:1.1061956e-05 1342:0.058823529 
1 1:1 1338:5.8730102e-05 1339:0.033333333 1340:0.052631579 1342:0.058823529 
1 1:1 1268:1 1338:0.0002858678 1342:0.058823529 
0.0003161066001825326 11:1 1319:1 1338:6.1073304e-06 1342:0.058823529 
1 7:1 1333:1 1338:0.0005389291 1339:0.033333333 
1 5:1 1283:1 1338:0.00014698261 1342:0.11764706 
1 1:1 1315:1 1338:0.00013278678 1340:0.052631579 
1 1:1 1313:1 1338:0.00010743769 1339:0.066666667 
1 1:1 1338:0.00019543697 1339:0.033333333 1342:0.058823529 
1 1:1 1315:1 1338:0.0001275194 1340:0.052631579 
1 2:1 1264:1 1339:0.1 1342:0.058823529 
1 1:1 1258:1 1338:6.84388e-06 1339:0.033333333 
1 1:1 1288:1 1338:7.1066945e-05 1339:0.033333333 
1 1:1 1338:3.9642576e-05 1342:0.058823529 
1 9:1 1255:1 1338:2.0091516e-06 1339:0.1 1341:0.05 
1 1:1 1244:1 1338:0.00021859592 1341:0.2 1342:0.17647059 
1 1:1 1313:1 1338:7.0685794e-05 1339:0.066666667 
1 5:1 1338:0.00017790994 1342:0.058823529 
0.4001986374863303 1:1 1289:1 1338:0.00011566587 1339:0.1 1341:0.05 1342:0.058823529 
1 1:1 1276:1 1338:2.5499476e-05 1340:0.052631579 
1 10:1 1260:1 1338:4.5975152e-05 1340:0.10526316 
1 5:1 1276:1 1338:0.00081311478 1342:0.058823529 
1 7:1 1338:0.00079602397 1342:0.058823529 
1 1:1 1338:7.0409045e-05 1342:0.058823529 
1 2:1 1252:1 1338:1.4810142e-07 1340:0.052631579 1341:0.1 
1 1:1 1251:1 1338:9.4200755e-09 1341:0.05 1342:0.058823529 
1 1:1 1338:0.00011761901 1342:0.058823529 
1 1:1 1313:1 1338:8.5759476e-05 1339:0.1 
1 1:1 1262:1 1338:8.8706845e-05 1342:0.058823529 
0.001037912389286316 531:1 1338:2.6715111e-06 1342:0.058823529 
1 1:1 1288:1 1338:7.6345922e-05 1339:0.033333333 
1 1:1 1253:1 1338:0.0001517092 1340:0.052631579 
1 7:1 1240:1 1338:0.00016803809 1339:0.033333333 
1 7:1 1277:1 1338:0.00015019257 1339:0.23333333 
1 2:1 1261:1 1338:7.301952e-08 1341:0.05 
1 1:1 1247:1 1338:5.0228512e-05 1342:0.058823529 
1 1309:1 1338:8.9964508e-08 1339:0.033333333 
1 1:1 1296:1 1338:0.00028437374 1340:0.15789474 1342:0.058823529 
1 3:1 1255:1 1338:9.3866315e-08 1339:0.1 1341:0.05 
1 2:1 1252:1 1338:1.4693088e-07 1340:0.052631579 1341:0.1 
1 1:1 1252:1 1338:0.00017443059 1342:0.11764706 
1 1:1 1338:0.00024645175 1339:0.033333333 1342:0.058823529 
1 5:1 1251:1 1338:2.3986076e-06 1339:0.066666667 1340:0.052631579 
1 2:1 1334:1 1338:1.7465823e-05 1339:0.066666667 1341:0.05 
1 1:1 1313:1 1338:7.1848811e-05 1339:0.033333333 
1 1:1 1313:1 1338:7.6163596e-05 1339:0.033333333 
1 2:1 1294:1 1338:7.9210015e-06 1340:0.52631579 
1 1:1 1288:1 1338:6.9132095e-05 1339:0.033333333 
1 5:1 1251:1 1338:2.7099718e-06 1339:0.066666667 1340:0.052631579 
1 5:1 1251:1 1338:2.4155526e-06 1339:0.066666667 1340:0.052631579 
1 2:1 1278:1 1338:1.1130182e-06 1342:0.058823529 
1 1:1 1338:3.1717562e-05 1342:0.058823529 
1 2:1 1319:1 1338:6.4825727e-08 1342:0.058823529 
1 5:1 1251:1 1338:2.3539041e-06 1339:0.066666667 1340:0.052631579 
1 1:1 1251:1 1338:1.5165764e-06 1341:0.05 1342:0.058823529 
1 1:1 1252:1 1338:9.575033e-07 1340:0.052631579 1341:0.1 
1 5:1 1251:1 1338:2.534279e-06 1339:0.066666667 1340:0.052631579 
1 3:1 1260:1 1338:6.9117714e-08 1340:0.10526316 
1 2:1 1277:1 1338:1.4904901e-07 1339:0.066666667 
1 2:1 1255:1 1338:2.1695159e-06 1339:0.1 1341:0.05 
1 1:1 1285:1 1338:0.00036421641 1339:0.033333333 1340:0.42105263 1341:0.15 
1 1:1 1277:1 1338:0.00012897131 1339:0.16666667 1341:0.05 
1 1:1 1338:0.00011057246 1342:0.058823529 
1 1:1 1338:1.9852558e-05 1339:0.033333333 1342:0.058823529 
1 1:1 1296:1 1338:0.00040125754 1340:0.15789474 1342:0.058823529 
1 1:1 1338:0.00012013361 1339:0.033333333 1342:0.058823529 
1 1:1 1315:1 1338:0.00026074262 1340:0.052631579 
1 5:1 1251:1 1338:3.009519e-06 1339:0.066666667 1340:0.052631579 
1 5:1 1283:1 1338:0.00016341406 1342:0.11764706 
1 2:1 1334:1 1338:1.1130182e-06 1339:0.066666667 1341:0.05 
1 1:1 1291:1 1338:7.5990133e-05 1341:0.05 
1 1:1 1277:1 1338:0.0001162701 1339:0.16666667 1341:0.05 
1 5:1 1338:0.0013667979 1341:0.05 1342:0.058823529 
1 2:1 1242:1 1338:8.0611321e-07 1342:0.058823529 
1 2:1 1268:1 1338:7.3059653e-06 1341:0.1 
1 1:1 1247:1 1338:0.00036575812 1341:0.05 
1 3:1 1251:1 1339:0.066666667 
1 5:1 1338:0.00019715259 1342:0.058823529 
1 1:1 1338:1.3910553e-05 1339:0.033333333 1342:0.058823529 
1 10:1 1260:1 1338:7.2002264e-06 1339:0.1 
1 1:1 1251:1 1338:6.9061974e-08 1341:0.05 1342:0.058823529 
1 1:1 1338:1.6808035e-05 1342:0.058823529 
1 3:1 1255:1 1338:4.8666674e-07 1339:0.1 1341:0.05 
1 7:1 1334:1 1338:0.0089819996 1339:0.033333333 1341:0.05 
1 3:1 1255:1 1338:4.6855121e-07 1339:0.1 1341:0.05 
1 1:1 1285:1 1338:7.3475642e-05 1339:0.13333333 1340:0.31578947 1341:0.1 
1 1:1 1338:1.3408837e-05 1341:0.1 
1 1:1 1288:1 1338:7.0518462e-05 1339:0.033333333 
1 5:1 1251:1 1338:3.4950152e-06 1339:0.066666667 1340:0.052631579 
1 1:1 1338:0.0001781062 1341:0.2 
1 5:1 1251:1 1338:2.2126587e-06 1339:0.066666667 1340:0.052631579 
1 1:1 1244:1 1338:0.00020072436 1341:0.2 1342:0.17647059 
1 3:1 1255:1 1338:1.6499067e-08 1339:0.1 1341:0.05 
1 1:1 1247:1 1338:0.00015810805 1341:0.1 
1 1:1 1255:1 1338:3.4781817e-08 1339:0.1 1341:0.05 
1 1:1 1338:9.8130432e-07 1339:0.033333333 1342:0.11764706 
1 1:1 1255:1 1338:3.4781817e-08 1339:0.1 1341:0.05 
1 1:1 1255:1 1338:2.396824e-09 1339:0.1 1341:0.05 
1 1:1 1338:0.00019944585 1339:0.033333333 1342:0.058823529 
1 1:1 1338:0.00021306399 1341:0.1 1342:0.29411765 
1 1:1 1315:1 1338:0.00011818878 1340:0.052631579 
1 1:1 1338:0.00026770718 1340:0.052631579 1341:0.1 1342:0.058823529 
1 1:1 1315:1 1338:0.00019538039 1340:0.052631579 
1 1:1 1268:1 1338:0.00028037528 1342:0.058823529 
1 5:1 1338:0.00054445489 1342:0.058823529 
1 375:1 1260:1 1338:8.3610138e-09 1340:0.052631579 
1 5:1 1334:1 1338:0.00024501438 1339:0.033333333 
1 5:1 1251:1 1338:3.1168745e-06 1339:0.066666667 1340:0.052631579 
1 5:1 1338:0.00013378832 1342:0.058823529 
1 1:1 1251:1 1338:2.4318845e-06 1341:0.05 1342:0.058823529 
1 1:1 1268:1 1338:0.00027226822 1342:0.058823529 
1 1:1 1338:9.5017794e-05 1339:0.033333333 1342:0.058823529 
0.2079052831844298 1:1 1252:1 1338:4.7550758e-06 1340:0.052631579 1341:0.1 
1 97:1 1242:1 1338:4.849388e-09 1342:0.058823529 
1 5:1 1338:0.000236074 1342:0.058823529 
1 7:1 1333:1 1338:0.00073276549 1339:0.033333333 1342:0.058823529 
1 2:1 1334:1 1338:6.4637883e-06 1339:0.066666667 1341:0.05 
1 48:1 1338:0.0016350373 1342:0.058823529 
1 1:1 1238:1 1338:8.0268742e-05 1340:0.052631579 1342:0.11764706 
1 5:1 1251:1 1338:3.1224485e-06 1339:0.066666667 1340:0.052631579 
1 7:1 1338:0.0011335044 1340:0.052631579 1341:0.1 1342:0.17647059 
1 1:1 1288:1 1338:7.2586197e-05 1339:0.033333333 
1 1:1 1277:1 1338:0.00013266003 1339:0.23333333 1341:0.05 
1 1:1 1338:1.31361e-05 1339:0.033333333 1342:0.058823529 
1 1:1 1338:0.0003296867 1342:0.11764706 
1 5:1 1338:0.00045968971 1342:0.058823529 
1 3:1 1289:1 1338:3.7078309e-07 1340:0.10526316 1341:0.05 1342:0.058823529 
1 1:1 1285:1 1338:0.0003819606 1339:0.033333333 1340:0.36842105 1341:0.1 
1 1:1 1251:1 1338:9.70435e-08 1341:0.05 1342:0.058823529 
1 12:1 1255:1 1338:2.9300894e-06 1339:0.1 1341:0.05 
1 3:1 1255:1 1338:3.9932202e-07 1339:0.1 1341:0.05 
1 5:1 1338:0.00010396993 1342:0.17647059 
1 1:1 1277:1 1338:0.00012698557 1339:0.16666667 1341:0.05 
1 1:1 1338:1.7107192e-06 1342:0.058823529 
1 1:1 1260:1 1338:4.6100958e-06 1340:0.052631579 
1 5:1 1251:1 1338:2.8116417e-06 1339:0.066666667 1340:0.052631579 
1 1255:1 1338:3.5448469e-06 1339:0.1 1341:0.05 
1 5:1 1251:1 1338:2.2996132e-06 1339:0.066666667 1340:0.052631579 
1 1:1 1251:1 1338:1.8951631e-08 1341:0.05 1342:0.058823529 
1 1:1 1338:2.5581246e-05 1342:0.058823529 
1 1:1 1338:0.00021836672 1341:0.1 1342:0.29411765 
1 1:1 1285:1 1338:0.00037868938 1339:0.033333333 1340:0.36842105 1341:0.1 
1 1:1 1338:0.0001899575 1341:0.1 1342:0.29411765 
1 1:1 1268:1 1338:0.00028106139 1342:0.058823529 
1 5:1 1283:1 1338:0.00011314358 1342:0.11764706 
1 2:1 1252:1 1338:3.7100605e-07 1340:0.052631579 1341:0.1 
1 3:1 1255:1 1338:4.5751467e-07 1339:0.1 1341:0.05 
1 1:1 1338:5.857141e-05 1339:0.033333333 1340:0.052631579 1342:0.058823529 
1 13:1 1297:1 1338:0.00022431664 1339:0.23333333 1340:0.26315789 1341:0.15 1342:0.058823529 
1 1:1 1260:1 1338:3.4837557e-08 1340:0.10526316 
1 1:1 1338:1.3897343e-05 1339:0.033333333 1342:0.058823529 
1 1:1 1277:1 1338:0.00013729632 1339:0.16666667 1341:0.05 
1 3:1 1252:1 1338:1.1499181e-07 1340:0.052631579 1341:0.1 
1 1:1 1338:9.8130432e-07 1339:0.033333333 1342:0.11764706 
1 17:1 1338:0.0064934237 1342:0.11764706 
1 1:1 1313:1 1338:6.8163444e-05 1339:0.033333333 
1 1:1 1285:1 1338:4.3536412e-05 1339:0.13333333 1340:0.31578947 1341:0.1 
1 3:1 1255:1 1338:4.8415844e-07 1339:0.1 1341:0.05 
1 137:1 1260:1 1338:1.0152835e-05 1339:0.16666667 
1 1:1 1288:1 1338:9.1344466e-05 1339:0.033333333 
1 7:1 1338:0.0019521063 1342:0.058823529 
1 2:1 1245:1 1338:6.694385e-08 1342:0.058823529 
1 10:1 1260:1 1338:3.8372037e-06 1340:0.10526316 
1 5:1 1283:1 1338:0.00038229749 1342:0.17647059 
1 1:1 1285:1 1338:0.00041052528 1339:0.033333333 1340:0.36842105 1341:0.1 
0.756444500417057 2:1 1251:1 1338:1.0562747e-06 1339:0.033333333 
1 5:1 1251:1 1338:2.5841107e-06 1339:0.066666667 1340:0.052631579 
1 2:1 1242:1 1338:6.9128862e-07 1342:0.058823529 
1 13:1 1263:1 1338:0.00019980326 1339:0.23333333 1340:0.26315789 1341:0.15 1342:0.058823529 
1 1:1 1268:1 1338:0.00021814888 1342:0.29411765 
1 10:1 1242:1 1338:2.4828867e-06 1342:0.058823529 
1 1:1 1315:1 1338:0.00023736567 1340:0.052631579 
1 1:1 1338:0.00021168961 1341:0.1 1342:0.29411765 
1 1:1 1251:1 1338:1.5924944e-07 1341:0.05 1342:0.058823529 
1 5:1 1251:1 1338:2.8959207e-06 1339:0.066666667 1340:0.052631579 
1 2:1 1294:1 1338:2.9988169e-08 1339:0.4 1340:0.052631579 
1 1:1 1338:2.2831699e-06 1342:0.058823529 
1 1:1 1268:1 1338:0.00027125643 1342:0.058823529 
1 13:1 1297:1 1338:0.00022048545 1339:0.23333333 1340:0.26315789 1341:0.15 1342:0.058823529 
1 6:1 1338:1.5068553e-05 1342:0.11764706 
1 1:1 1315:1 1338:3.8692821e-05 1340:0.052631579 
1 17:1 1338:0.0064722 1342:0.11764706 
1 17:1 1341:0.05 1342:0.11764706 
1 5:1 1268:1 1338:0.0063563931 1341:0.05 
1 2:1 1248:1 1338:5.5740092e-11 1339:0.066666667 
1 2:1 1251:1 1338:1.4826864e-08 1339:0.066666667 1340:0.15789474 
1 10:1 1260:1 1338:2.7726237e-06 1340:0.10526316 
1 5:1 1283:1 1338:0.00015764887 1342:0.17647059 
1 6:1 1338:2.5028639e-05 1342:0.11764706 
1 1:1 1338:0.00023577462 1339:0.033333333 1342:0.058823529 
1 3:1 1251:1 1338:1.1933954e-07 1341:0.05 1342:0.058823529 
1 74:1 1241:1 1338:1.0272899e-06 1340:0.10526316 1342:0.058823529 
1 1:1 1257:1 1338:0.00020628449 1341:0.05 
1 2:1 1338:2.1974974e-06 1342:0.17647059 
1 1:1 1338:2.8451415e-05 1339:0.033333333 1342:0.058823529 
1 5:1 1276:1 1338:0.00040975261 1341:0.05 
1 1:1 1313:1 1338:7.5704744e-05 1339:0.1 
1 1:1 1277:1 1338:8.3379039e-05 1339:0.1 1341:0.05 
1 1:1 1313:1 1338:8.9025957e-05 1339:0.066666667 
1 1:1 1258:1 1338:6.1736667e-05 1339:0.033333333 
1 2:1 1338:0.0038561294 1342:0.058823529 
1 1:1 1238:1 1338:5.3607197e-05 1340:0.052631579 1341:0.05 1342:0.058823529 
0.3035835484922681 171:1 1285:1 1338:0.0016623213 1339:0.033333333 1340:0.21052632 1341:0.1 
1 13:1 1297:1 1338:0.0002135802 1339:0.23333333 1340:0.26315789 1341:0.15 1342:0.058823529 
1 1:1 1277:1 1338:9.8244922e-05 1339:0.23333333 1341:0.05 
1 5:1 1276:1 1338:0.00018165027 1340:0.10526316 
1 1:1 1338:0.00033226892 1342:0.11764706 
1 7:1 1252:1 1338:0.0057235858 1342:0.058823529 
1 3:1 1255:1 1338:9.3866315e-08 1339:0.1 1341:0.05 
1 31:1 1334:1 1338:6.7370875e-05 1339:0.066666667 1340:0.10526316 1341:0.05 
1 7:1 1333:1 1338:0.00089384633 1339:0.033333333 1342:0.058823529 
1 1:1 1315:1 1338:4.7083767e-05 1340:0.052631579 
1 1:1 1338:5.6932428e-05 1342:0.058823529 
1 5:1 1276:1 1338:2.0762069e-05 1340:0.052631579 
1 6:1 1338:3.1535514e-05 1342:0.11764706 
1 1:1 1338:7.1348544e-05 1342:0.058823529 
1 1:1 1283:1 1338:8.5494153e-07 1342:0.11764706 
1 4:1 1260:1 1338:2.8706147e-08 1339:0.1 
1 3:1 1260:1 1338:8.1324794e-08 1340:0.10526316 
1 213:1 1251:1 1338:1.0674228e-07 1339:0.1 1340:0.052631579 
1 17:1 1338:0.0064426828 1339:0.033333333 1342:0.11764706 
1 5:1 1251:1 1338:2.5406334e-06 1339:0.066666667 1340:0.052631579 
1 2:1 1338:0.00012080071 1341:0.2 
1 1:1 1251:1 1338:1.2742185e-07 1341:0.05 1342:0.058823529 
1 1:1 1285:1 1338:0.00035563026 1339:0.033333333 1340:0.36842105 1341:0.1 
1 2:1 1334:1 1338:6.6347431e-06 1339:0.066666667 1341:0.05 
1 7:1 1338:0.00048048138 1342:0.058823529 
1 2:1 1308:1 1338:1.7127258e-06 1340:0.10526316 1341:0.05 1342:0.058823529 
1 5:1 1283:1 1338:0.0002754847 1342:0.11764706 
1 5:1 1251:1 1338:3.0541111e-06 1339:0.066666667 1340:0.052631579 
1 1:1 1338:0.0002043099 1341:0.1 1342:0.29411765 
1 1:1 1338:0.0002435191 1339:0.033333333 1342:0.058823529 
1 2:1 1260:1 1338:3.7791782e-08 1340:0.10526316 
1 3:1 1252:1 1338:1.1253925e-07 1340:0.052631579 1341:0.1 
1 1:1 1285:1 1338:0.00037535188 1339:0.033333333 1340:0.36842105 1341:0.1 
1 2:1 1315:1 1338:2.7682759e-06 1341:0.05 
1 1:1 1285:1 1338:0.00037868938 1339:0.033333333 1340:0.36842105 1341:0.1 
1 1:1 1338:0.00017185663 1341:0.1 1342:0.29411765 
1 1:1 1260:1 1338:7.4691723e-09 1340:0.10526316 
1 5:1 1251:1 1338:2.5969309e-06 1339:0.066666667 1340:0.052631579 
1 5:1 1283:1 1338:0.00026254369 1342:0.11764706 
1 1:1 1338:0.00019302755 1341:0.1 1342:0.29411765 
1 1:1 1330:1 1338:1.6434966e-05 1341:0.05 1342:0.058823529 
1 5:1 1251:1 1338:3.0541111e-06 1339:0.066666667 1340:0.052631579 
1 2:1 1308:1 1338:6.4772216e-06 1340:0.10526316 1341:0.05 1342:0.058823529 
1 1:1 1251:1 1338:3.3165355e-08 1341:0.05 1342:0.058823529 
1 1:1 1338:2.4354964e-05 1342:0.058823529 
1 5:1 1283:1 1338:0.0001817248 1342:0.17647059 
1 5:1 1276:1 1338:2.4563878e-05 1340:0.052631579 
1 1:1 1338:2.4399222e-05 1341:0.1 
1 1:1 1288:1 1338:9.8258355e-05 1339:0.033333333 
1 1:1 1338:2.3170989e-05 1342:0.058823529 
1 12:1 1338:0.0091873117 1342:0.11764706 
1 2:1 1338:3.0822041e-06 1342:0.058823529 
1 10:1 1294:1 1338:0.007343848 1339:0.86666667 1340:0.052631579 
0.1065672516026655 343:1 1338:1.3805706e-06 1341:0.05 
1 1:1 1285:1 1338:0.0003344711 1339:0.033333333 1340:0.42105263 1341:0.15 
1 1:1 1296:1 1338:0.00028609823 1340:0.15789474 1342:0.058823529 
1 3:1 1251:1 1338:7.3604791e-07 1341:0.05 1342:0.058823529 
1 10:1 1260:1 1338:1.6787243e-06 1340:0.052631579 
1 5:1 1334:1 1338:0.00042274417 1339:0.033333333 
1 8:1 1263:1 1338:1.43475e-06 1341:0.05 
1 46:1 1338:1.6616121e-06 1341:0.1 
1 6:1 1338:2.5970424e-06 1342:0.11764706 
1 5:1 1283:1 1338:0.00015439403 1342:0.11764706 
1 17:1 1338:0.0020286662 1342:0.058823529 
1 5:1 1338:4.8025663e-07 1342:0.058823529 
1 11:1 1264:1 1338:0.00018484663 1339:0.033333333 1341:0.05 1342:0.058823529 
1 1:1 1338:1.4337411e-05 1339:0.033333333 1342:0.058823529 
1 1:1 1285:1 1338:0.00013551955 1339:0.1 1340:0.31578947 1341:0.1 
1 1:1 1342:0.11764706 
1 5:1 1338:0.00012787836 1342:0.058823529 
1 1:1 1291:1 1338:8.1885651e-05 1341:0.05 
1 13:1 1297:1 1338:0.00021161291 1339:0.23333333 1340:0.26315789 1341:0.15 1342:0.058823529 
1 1:1 1338:5.8663771e-05 1339:0.033333333 1340:0.052631579 1342:0.058823529 
1 2:1 1260:1 1338:1.7391968e-05 1339:0.033333333 1340:0.052631579 
1 1:1 1338:0.0002628157 1342:0.058823529 
1 2:1 1242:1 1338:5.5422373e-07 1342:0.058823529 
1 2:1 1338:1.7380207e-05 1342:0.17647059 
1 2:1 1338:3.0401482e-05 1342:0.17647059 
1 5:1 1338:0.0001336221 1342:0.058823529 
1 7:1 1240:1 1338:0.00050650977 1339:0.033333333 
1 12:1 1338:1.4841914e-06 1341:0.1 
1 1:1 1268:1 1338:0.0002726817 1342:0.058823529 
1 1:1 1268:1 1338:0.00021716373 1342:0.058823529 
1 1:1 1258:1 1338:3.5251149e-06 1339:0.033333333 
1 1:1 1251:1 1338:3.0328741e-06 1341:0.05 1342:0.058823529 
1 5:1 1251:1 1338:2.3025117e-06 1339:0.066666667 1340:0.052631579 
1 1:1 1330:1 1338:0.00020291049 1341:0.2 1342:0.17647059 
1 12:1 1240:1 1338:0.0033646443 1340:1 1341:0.35 
1 1338:1.226282e-08 1342:0.11764706 
0.4221237899825027 9:1 1338:7.7055103e-07 1341:0.1 
1 1:1 1285:1 1338:0.00035188937 1339:0.033333333 1340:0.36842105 1341:0.15 
1 1:1 1338:1.3290612e-05 1342:0.058823529 
1 1:1 1285:1 1338:0.00036421641 1339:0.033333333 1340:0.42105263 1341:0.15 
1 3:1 1255:1 1338:4.6336738e-07 1339:0.1 1341:0.05 
1 1:1 1268:1 1338:0.00028452864 1342:0.058823529 
1 5:1 1251:1 1338:3.3160895e-06 1339:0.066666667 1340:0.052631579 
1 1:1 1262:1 1338:0.00011310222 1340:0.052631579 
1 1:1 1291:1 1338:7.6540399e-05 1341:0.05 
1 3:1 1255:1 1338:2.0177913e-08 1339:0.1 1341:0.05 
1 12:1 1252:1 1338:0.00046078835 1340:0.15789474 1341:0.45 
1 10:1 1260:1 1338:6.3715384e-06 1339:0.1 
1 3:1 1255:1 1338:1.805979e-08 1339:0.1 1341:0.05 
1 1:1 1285:1 1338:0.00038126084 1339:0.033333333 1340:0.36842105 1341:0.1 
1 6:1 1338:0.00016940707 1342:0.11764706 
1 5:1 1251:1 1338:3.0711676e-06 1339:0.066666667 1340:0.052631579 
1 5:1 1276:1 1338:4.7028083e-05 1340:0.052631579 
1 1:1 1268:1 1338:0.00021809186 1342:0.29411765 
1 2:1 1264:1 1339:0.1 1342:0.058823529 
1 1:1 1251:1 1338:1.1476885e-07 1341:0.05 1342:0.058823529 
1 1:1 1277:1 1338:0.00012076096 1339:0.16666667 1341:0.05 
1 97:1 1242:1 1338:5.2395686e-09 1342:0.11764706 
1 5:1 1283:1 1338:0.00019871616 1342:0.11764706 
1 1:1 1277:1 1338:8.2398515e-05 1339:0.1 1341:0.05 
1 1:1 1244:1 1338:0.00013026554 1342:0.058823529 
1 1:1 1268:1 1338:0.00024704778 1342:0.058823529 
1 7:1 1333:1 1338:0.00014532022 1339:0.033333333 1342:0.058823529 
1 5:1 1283:1 1338:0.00010702811 1342:0.11764706 
1 1:1 1268:1 1338:0.0002289259 1342:0.29411765 
1 5:1 1283:1 1338:0.00021024438 1342:0.11764706 
1 1:1 1252:1 1338:7.5237976e-07 1340:0.052631579 1341:0.1 
1 5:1 1268:1 1338:0.0056686632 1341:0.05 
1 1:1 1285:1 1338:0.00036328087 1339:0.033333333 1340:0.36842105 1341:0.1 
1 1:1 1285:1 1338:0.00040090231 1339:0.033333333 1340:0.36842105 1341:0.1 
1 3:1 1251:1 1338:1.7368613e-07 1341:0.05 1342:0.058823529 
1 5:1 1283:1 1338:9.9427448e-05 1342:0.11764706 
1 5:1 1251:1 1338:2.6533399e-06 1339:0.066666667 1340:0.052631579 
0.0006536458457691023 102:1 1258:1 1338:7.898371e-08 1340:0.052631579 
1 1:1 1252:1 1338:1.5345247e-07 1340:0.052631579 1341:0.1 
1 91:1 1338:0.0067984601 1339:0.1 
1 1:1 1338:5.893372e-05 1339:0.033333333 1340:0.052631579 1342:0.058823529 
1 1:1 1313:1 1338:7.1848811e-05 1339:0.066666667 
1 5:1 1338:0.00019070129 1342:0.058823529 
1 1:1 1338:6.0262787e-05 1339:0.033333333 1340:0.052631579 1342:0.058823529 
1 5:1 1276:1 1338:2.2138069e-05 1340:0.052631579 
1 1:1 1254:1 1338:3.4339854e-05 1339:0.2 1340:0.10526316 1341:0.25 
1 17:1 1338:0.0097789864 1341:0.05 1342:0.11764706 
1 1:1 1288:1 1338:6.8623299e-05 1339:0.033333333 
1 2:1 1260:1 1338:2.2145483e-05 1339:0.033333333 1340:0.052631579 
1 17:1 1342:0.11764706 
1 10:1 1260:1 1338:8.7548733e-06 1340:0.052631579 
1 1:1 1251:1 1338:5.8805797e-07 1341:0.05 1342:0.058823529 
1 2:1 1338:2.2545752e-06 1342:0.058823529 
1 3:1 1260:1 1338:2.8761887e-08 1340:0.10526316 
1 7:1 1338:0.11826862 1341:0.15 
1 12:1 1282:1 1338:1.1459605e-06 1341:0.15 1342:0.29411765 
1 1:1 1251:1 1338:7.0369636e-06 1341:0.05 1342:0.058823529 
1 3:1 1255:1 1338:1.0194863e-07 1339:0.1 1341:0.05 
1 1:1 1251:1 1338:1.6318469e-06 1341:0.05 1342:0.058823529 
1 3:1 1255:1 1338:4.9302111e-07 1339:0.1 1341:0.05 
1 17:1 1338:0.011702741 1341:0.05 1342:0.11764706 
1 10:1 1242:1 1338:0.00028539802 1342:0.058823529 
1 12:1 1282:1 1338:1.2896028e-06 1341:0.15 1342:0.23529412 
1 17:1 1341:0.05 1342:0.11764706 
1 5:1 1251:1 1338:2.7320449e-06 1339:0.066666667 1340:0.052631579 
1 1:1 1285:1 1338:0.00034577881 1339:0.033333333 1340:0.36842105 1341:0.1 
1 5:1 1338:0.0005992755 1341:0.05 1342:0.058823529 
1 1:1 1277:1 1338:0.00013452927 1339:0.16666667 1341:0.05 
1 5:1 1247:1 1338:0.00028770092 1342:0.058823529 
1 17:1 1338:0.0096955588 1342:0.11764706 
1 5:1 1338:0.00011405677 1342:0.058823529 
1 1:1 1338:3.9139968e-05 1342:0.058823529 
1 1:1 1338:1.5116936e-05 1339:0.033333333 1342:0.058823529 
1 1:1 1338:5.9735876e-05 1339:0.033333333 1340:0.052631579 1342:0.058823529 
1 1:1 1251:1 1338:9.566672e-07 1341:0.05 1342:0.058823529 
1 1:1 1288:1 1338:7.604643e-05 1341:0.05 
1 3:1 1255:1 1338:3.6303522e-07 1339:0.1 1341:0.05 
1 2:1 1294:1 1338:1.1652633e-05 1340:0.52631579 
1 198:1 1298:1 1338:2.8204487e-08 1342:0.058823529 
1 1:1 1260:1 1338:3.623106e-09 1340:0.10526316 
1 1:1 1258:1 1338:1.4632332e-05 1339:0.033333333 
1 1:1 1260:1 1338:5.3763715e-05 1339:0.066666667 
1 1:1 1330:1 1338:0.00021859592 1341:0.2 1342:0.17647059 
1 3:1 1255:1 1338:3.9564317e-07 1339:0.1 1341:0.05 
1 13:1 1297:1 1338:0.00019070296 1339:0.23333333 1340:0.26315789 1341:0.15 1342:0.058823529 
1 48:1 1332:1 1338:0.00028000907 1342:0.058823529 
1 32:1 1251:1 1338:2.5994949e-05 1339:0.1 1340:0.052631579 
1 1:1 1338:0.00019100318 1341:0.2 
1 8:1 1263:1 1338:1.3776721e-06 1341:0.05 
1 2:1 1252:1 1338:1.5495746e-07 1340:0.052631579 1341:0.1 
1 3:1 1251:1 1338:1.311007e-07 1341:0.05 1342:0.058823529 
1 5:1 1283:1 1338:0.00021433565 1342:0.11764706 
1 1:1 1338:0.00014379104 1342:0.058823529 
1 1:1 1338:5.849421e-06 1342:0.058823529 
1 11:1 1319:1 1338:6.64957e-06 1342:0.058823529 
1 5:1 1283:1 1338:0.00017954029 1342:0.11764706 
1 1:1 1277:1 1338:0.00014085989 1339:0.16666667 1341:0.05 
1 1:1 1251:1 1338:2.2400828e-06 1341:0.05 1342:0.058823529 
1 1:1 1315:1 1338:0.00023636898 1340:0.052631579 
1 1:1 1254:1 1338:3.6036694e-05 1339:0.2 1340:0.10526316 1341:0.25 
1 18:1 1242:1 1338:3.4954612e-06 1342:0.11764706 
1 1:1 1338:7.725443e-05 1342:0.11764706 
1 1:1 1338:0.00019956809 1341:0.1 1342:0.29411765 
1 2:1 1338:3.1963598e-06 1342:0.058823529 
1 1:1 1291:1 1338:8.1029706e-05 1341:0.05 
1 17:1 1338:0.0048520648 1341:0.05 1342:0.058823529 
1 12:1 1282:1 1338:1.2896028e-06 1341:0.15 1342:0.23529412 
1 1:1 1285:1 1338:0.00045403281 1339:0.033333333 1340:0.36842105 1341:0.1 
1 3:1 1251:1 1338:2.8600241e-07 1341:0.05 1342:0.058823529 
1 1:1 1338:7.2039498e-05 1342:0.11764706 
1 2:1 1252:1 1338:3.7100605e-07 1340:0.052631579 1341:0.1 
1 7:1 1333:1 1338:0.00076776113 1339:0.033333333 1342:0.058823529 
1 17:1 1342:0.11764706 
1 1:1 1338:2.4353682e-05 1342:0.058823529 
1 1:1 1285:1 1338:0.00033229846 1339:0.033333333 1340:0.42105263 1341:0.15 
1 1:1 1285:1 1338:0.00033531316 1339:0.033333333 1340:0.42105263 1341:0.15 
1 3:1 1310:1 1338:9.2171816e-07 1342:0.17647059 
1 1:1 1238:1 1338:8.0268742e-05 1340:0.052631579 1342:0.11764706 
1 12:1 1338:0.02095168 1339:0.1 1342:0.058823529 
1 1:1 1338:2.2689562e-05 1339:0.033333333 1342:0.058823529 
1 5:1 1251:1 1338:3.0999295e-06 1339:0.066666667 1340:0.052631579 
1 1:1 1338:3.8440597e-06 1342:0.058823529 
1 2:1 1251:1 1338:1.0735542e-07 1339:0.033333333 
1 1:1 1338:1.3816129e-05 1339:0.033333333 1342:0.058823529 
1 2:1 1308:1 1338:0.00017084478 1340:0.10526316 1341:0.15 1342:0.11764706 
1 1:1 1338:4.9769325e-05 1342:0.058823529 
1 1:1 1338:7.7314517e-05 1342:0.11764706 
1 5:1 1283:1 1338:0.00018002355 1342:0.11764706 
1 1:1 1338:8.8371457e-06 1342:0.058823529 
1 1:1 1338:0.00019518213 1341:0.1 1342:0.29411765 
1 1:1 1338:0.00021810323 1341:0.1 1342:0.29411765 
1 1:1 1338:1.9613545e-05 1342:0.058823529 
1 1:1 1285:1 1339:0.033333333 1340:0.42105263 1341:0.1 
1 1:1 1326:1 1338:0.00020664831 1342:0.058823529 
1 5:1 1283:1 1338:0.00010471657 1342:0.11764706 
1 5:1 1251:1 1338:3.2972494e-06 1339:0.066666667 1340:0.052631579 
1 1:1 1252:1 1338:7.0410884e-07 1340:0.052631579 1341:0.1 
1 2:1 1260:1 1338:5.5065637e-07 1339:0.1 
1 2:1 1251:1 1338:9.2082632e-08 1339:0.066666667 1340:0.15789474 
1 1:1 1285:1 1338:7.1569442e-05 1339:0.13333333 1340:0.31578947 1341:0.1 
1 5:1 1251:1 1338:2.9868886e-06 1339:0.066666667 1340:0.052631579 
1 12:1 1242:1 1338:0.00010995408 1342:0.11764706 
1 5:1 1338:0.00019137814 1342:0.058823529 
1 137:1 1338:1.3392672e-06 1341:0.15 1342:0.058823529 
1 13:1 1263:1 1338:0.00021890461 1339:0.23333333 1340:0.26315789 1341:0.15 1342:0.058823529 
1 12:1 1251:1 1338:0.0011650305 1341:0.05 
1 4:1 1260:1 1338:2.8706147e-08 1339:0.1 
1 5:1 1251:1 1338:3.3423989e-06 1339:0.066666667 1340:0.052631579 
1 1:1 1338:2.2748479e-05 1342:0.058823529 
1 2:1 1334:1 1338:0.0001182288 1339:0.066666667 1340:0.10526316 1341:0.05 
1 5:1 1251:1 1338:4.2955767e-05 1342:0.058823529 
1 1:1 1254:1 1338:3.0723214e-05 1339:0.2 1340:0.10526316 1341:0.25 
1 2:1 1252:1 1338:3.7100605e-07 1340:0.052631579 1341:0.1 
1 1:1 1268:1 1338:0.00019276178 1342:0.29411765 
1 5:1 1251:1 1338:2.534279e-06 1339:0.066666667 1340:0.052631579 
1 1:1 1253:1 1338:6.9555274e-06 1339:0.033333333 
1 12:1 1276:1 1338:0.034398922 1339:0.033333333 
1 10:1 1260:1 1338:1.3477954e-06 1339:0.1 
1 2:1 1294:1 1338:0.00011816933 1340:0.052631579 1341:0.05 
1 12:1 1291:1 1338:0.016529154 1339:0.066666667 1340:0.10526316 
1 7:1 1245:1 1338:0.0043772944 1340:0.052631579 
1 5:1 1338:3.6723802e-06 1342:0.11764706 
1 2:1 1242:1 1338:7.0940415e-07 1342:0.058823529 
1 1:1 1338:4.9548037e-05 1342:0.058823529 
1 3:1 1255:1 1338:2.0122173e-08 1339:0.1 1341:0.05 
1 1:1 1338:0.00022840266 1339:0.033333333 1342:0.058823529 
1 1:1 1285:1 1338:0.00040836707 1339:0.033333333 1340:0.36842105 1341:0.1 
1 2:1 1245:1 1338:9.8659963e-08 1342:0.058823529 
1 2:1 1253:1 1338:3.139282e-06 1340:0.052631579 
1 1:1 1315:1 1338:0.00015093274 1340:0.052631579 
1 1:1 1251:1 1338:2.8822644e-06 1341:0.05 1342:0.058823529 
1 7:1 1268:1 1338:0.0071880078 1340:0.052631579 
1 196:1 1338:6.1644082e-06 1342:0.11764706 
1 5:1 1338:0.00039002803 1342:0.11764706 
1 1:1 1285:1 1338:0.00040698299 1339:0.033333333 1340:0.36842105 1341:0.1 
1 7:1 1338:0.038580401 1342:0.058823529 
1 5:1 1251:1 1338:2.9524412e-06 1339:0.066666667 1340:0.052631579 
1 1:1 1291:1 1338:7.6470668e-05 1341:0.05 
1 5:1 1283:1 1338:0.00017931314 1342:0.11764706 
1 10:1 1260:1 1339:0.1 
1 91:1 1338:1.1148018e-09 1339:0.066666667 
1 1:1 1285:1 1338:0.00037419606 1339:0.033333333 1340:0.36842105 1341:0.1 
1 1:1 1251:1 1338:7.5018918e-06 1341:0.05 1342:0.058823529 
1 14:1 1338:0.04541936 1342:0.17647059 
1 7:1 1333:1 1338:0.00050742212 1339:0.033333333 1342:0.058823529 
1 1:1 1332:1 1338:0.00012143124 1342:0.058823529 
1 5:1 1338:8.0602737e-05 1342:0.058823529 
1 1:1 1338:0.00017990048 1341:0.25 
1 10:1 1260:1 1338:3.7697024e-07 1339:0.1 
1 1:1 1338:6.8162886e-05 1342:0.058823529 
1 2:1 1338:1.1170314e-07 1339:0.033333333 1342:0.058823529 
1 2:1 1252:1 1338:3.7100605e-07 1340:0.052631579 1341:0.1 
1 1:1 1253:1 1338:3.5791438e-05 1341:0.1 
1 7:1 1334:1 1338:0.0088331208 1339:0.033333333 1341:0.05 
1 7:1 1333:1 1338:0.00060742252 1339:0.033333333 1342:0.058823529 
1 7:1 1338:0.012818307 1342:0.058823529 
1 5:1 1251:1 1338:3.3485303e-06 1339:0.066666667 1340:0.052631579 
1 1:1 1251:1 1338:5.2295354e-07 1341:0.05 1342:0.058823529 
1 1:1 1285:1 1338:7.2220988e-05 1339:0.13333333 1340:0.31578947 1341:0.1 
1 17:1 1338:0.00081192896 1342:0.058823529 
1 7:1 1338:0.04093159 1342:0.058823529 
1 2:1 1245:1 1338:6.1258361e-08 1342:0.058823529 
1 1:1 1338:5.5868127e-05 1342:0.058823529 
0.4638202290749996 901:1 1242:1 1338:6.7779952e-08 1342:0.17647059 
1 1:1 1278:1 1338:5.9265653e-06 1342:0.058823529 
1 7:1 1333:1 1338:4.6562932e-05 1339:0.033333333 1342:0.058823529 
1 2:1 1338:0.00056684636 1342:0.058823529 
1 10:1 1260:1 1338:2.44699e-07 1340:0.10526316 
1 2:1 1251:1 1338:1.6493493e-07 1339:0.1 1340:0.052631579 
1 1:1 1247:1 1338:0.00030421632 1341:0.05 
1 5:1 1251:1 1338:2.7494358e-06 1339:0.066666667 1340:0.052631579 
1 2:1 1278:1 1338:2.8207274e-06 1342:0.058823529 
1 1:1 1247:1 1338:0.00043267929 1341:0.05 
1 2:1 1245:1 1338:3.5952359e-08 1339:0.1 
1 5:1 1251:1 1338:2.9638122e-06 1339:0.066666667 1340:0.052631579 
1 1:1 1338:6.6773899e-05 1342:0.058823529 
1 2:1 1252:1 1338:3.7100605e-07 1340:0.052631579 1341:0.1 
1 10:1 1260:1 1338:3.7472949e-06 1340:0.10526316 
1 17:1 1338:0.0050183209 1341:0.05 1342:0.058823529 
1 46:1 1338:4.2038063e-06 1339:0.033333333 1342:0.058823529 
1 1:1 1252:1 1338:3.7946182e-06 1340:0.052631579 1341:0.1 
1 1:1 1338:7.069605e-05 1342:0.058823529 
1 2:1 1242:1 1338:1.0277916e-06 1342:0.058823529 
1 2:1 1253:1 1338:1.1946216e-06 1340:0.052631579 
1 5:1 1251:1 1338:2.4159985e-06 1339:0.066666667 1340:0.052631579 
1 1:1 1338:2.4029052e-05 1342:0.058823529 
0.4814939694150236 471:1 1338:0.0039390569 1341:0.05 1342:0.058823529 
1 2:1 1308:1 1338:2.0197422e-06 1340:0.10526316 1341:0.05 1342:0.058823529 
1 5:1 1251:1 1338:2.6924694e-06 1339:0.066666667 1340:0.052631579 
1 2:1 1253:1 1338:1.6837967e-06 1340:0.052631579 
1 1:1 1277:1 1338:0.00011967035 1339:0.23333333 1341:0.05 
1 74:1 1241:1 1338:1.1709321e-06 1340:0.10526316 1342:0.058823529 
1 1:1 1252:1 1338:1.1431178e-06 1340:0.052631579 1341:0.1 
1 3:1 1251:1 1338:2.8388429e-07 1341:0.05 1342:0.058823529 
1 5:1 1245:1 1338:4.5732126e-05 1342:0.058823529 
1 3:1 1251:1 1338:1.2669723e-07 1341:0.05 1342:0.058823529 
1 1:1 1338:0.00021810323 1341:0.1 1342:0.29411765 
1 7:1 1333:1 1338:0.0010730637 1339:0.033333333 1342:0.058823529 
1 1:1 1260:1 1338:3.2942394e-08 1340:0.10526316 
1 1:1 1285:1 1338:0.00039000846 1339:0.033333333 1340:0.36842105 1341:0.1 
1 3:1 1255:1 1338:4.6175092e-07 1339:0.1 1341:0.05 
1 5:1 1283:1 1338:0.00088323252 1342:0.17647059 
1 10:1 1260:1 1338:3.2379419e-06 1340:0.10526316 
0.822482867581071 7:1 1338:0.083032565 1340:0.052631579 1342:0.058823529 
1 1:1 1268:1 1338:0.0002476816 1342:0.29411765 
1 46:1 1338:4.6006757e-06 1341:0.05 
1 3:1 1255:1 1338:4.8415844e-07 1339:0.1 1341:0.05 
1 1:1 1268:1 1338:0.00027314546 1342:0.058823529 
1 5:1 1338:0.00025684332 1342:0.058823529 
1 2:1 1268:1 1338:3.7321893e-05 1342:0.058823529 
1 2:1 1313:1 1338:2.693417e-06 1339:0.066666667 
1 2:1 1278:1 1338:0.00017421566 1342:0.11764706 
1 5:1 1276:1 1338:0.00032356683 1341:0.05 
1 1:1 1258:1 1338:1.3516805e-05 1339:0.033333333 
1 7:1 1333:1 1338:0.0012453818 1339:0.033333333 1342:0.058823529 
1 1:1 1268:1 1338:0.00026707859 1342:0.058823529 
0.9998453234500364 192:1 1334:1 1338:7.5219582e-06 1339:0.066666667 1341:0.05 
1 1:1 1253:1 1338:7.0118304e-05 1340:0.052631579 
1 5:1 1251:1 1338:2.818665e-06 1339:0.066666667 1340:0.052631579 
1 3:1 1255:1 1338:9.9328844e-08 1339:0.1 1341:0.05 
1 1:1 1251:1 1338:7.251786e-08 1341:0.05 1342:0.058823529 
1 1:1 1260:1 1338:7.4691723e-09 1340:0.10526316 
1 2:1 1242:1 1338:6.0879328e-07 1342:0.058823529 
1 5:1 1251:1 1338:2.5128748e-06 1339:0.066666667 1340:0.052631579 
1 5:1 1276:1 1338:0.00077299718 1342:0.058823529 
1 3:1 1255:1 1338:1.0194863e-07 1339:0.1 1341:0.05 
1 48:1 1338:0.0012140434 1340:0.052631579 1342:0.058823529 
1 5:1 1251:1 1338:3.2328139e-06 1339:0.066666667 1340:0.052631579 
1 5:1 1283:1 1338:0.00019044433 1342:0.11764706 
1 7:1 1338:0.0044986482 1342:0.058823529 
1 41:1 1252:1 1338:4.6085908e-07 1342:0.11764706 
1 1:1 1313:1 1338:7.0217912e-05 1339:0.033333333 
1 1:1 1338:7.5545494e-05 1342:0.11764706 
1 7:1 1338:0.0011335044 1340:0.052631579 1341:0.1 1342:0.17647059 
1 5:1 1283:1 1338:0.00025957603 1342:0.11764706 
1 2:1 1308:1 1338:3.7668597e-06 1340:0.10526316 1341:0.05 1342:0.058823529 
1 5:1 1251:1 1338:2.3816626e-06 1339:0.066666667 1340:0.052631579 
1 5:1 1283:1 1338:0.0001840355 1342:0.11764706 
1 1:1 1288:1 1338:6.0664395e-05 1339:0.033333333 
1 2:1 1255:1 1338:1.1259499e-08 1339:0.1 1341:0.05 
1 1:1 1288:1 1338:5.8194718e-05 1339:0.033333333 
1 2:1 1338:1.3428903e-06 1342:0.11764706 
1 2:1 1264:1 1338:7.4288722e-06 1339:0.033333333 1341:0.05 1342:0.058823529 
1 1:1 1338:5.9000664e-05 1342:0.058823529 
1 12:1 1338:0.026397434 1342:0.11764706 
1 13:1 1297:1 1338:0.00021938681 1339:0.23333333 1340:0.26315789 1341:0.15 1342:0.058823529 
1 1:1 1338:5.7127964e-05 1342:0.058823529 
1 3:1 1255:1 1338:1.805979e-08 1339:0.1 1341:0.05 
1 1:1 1291:1 1338:7.402496e-05 1341:0.05 
1 5:1 1338:0.00014515428 1342:0.058823529 
1 5:1 1334:1 1338:0.00014915681 1339:0.033333333 
1 1:1 1285:1 1338:0.00044493871 1339:0.033333333 1340:0.36842105 1341:0.1 
1 5:1 1338:0.00020559109 1342:0.058823529 
1 5:1 1283:1 1338:0.00017201883 1342:0.11764706 
1 2:1 1245:1 1338:2.1571416e-08 1342:0.058823529 
1 7:1 1338:0.00052431717 1342:0.058823529 
1 2:1 1253:1 1338:1.1185922e-06 1340:0.052631579 
1 2:1 1264:1 1339:0.1 1342:0.058823529 
1 5:1 1251:1 1338:3.4554398e-06 1339:0.066666667 1340:0.052631579 
1 5:1 1251:1 1338:3.2915639e-06 1339:0.066666667 1340:0.052631579 
1 1:1 1288:1 1338:7.7474826e-05 1339:0.033333333 
1 1:1 1338:3.8460663e-09 1342:0.058823529 
1 3:1 1255:1 1338:1.9230332e-08 1339:0.1 1341:0.05 
1 1:1 1285:1 1338:0.00039262223 1339:0.033333333 1340:0.42105263 1341:0.15 
1 1:1 1338:7.7842543e-05 1342:0.11764706 
1 1:1 1238:1 1338:1.896356e-05 1342:0.23529412 
1 1:1 1338:0.00024471673 1341:0.1 1342:0.29411765 
1 1:1 1288:1 1338:7.3146441e-05 1339:0.033333333 
1 1:1 1338:5.7105167e-05 1342:0.058823529 
1 1:1 1288:1 1338:7.3314274e-05 1339:0.033333333 
1 5:1 1338:0.00053748008 1342:0.058823529 
1 1:1 1338:0.00036088789 1342:0.11764706 
1 2:1 1338:3.5673659e-06 1342:0.058823529 
1 1:1 1288:1 1338:5.8197171e-05 1339:0.033333333 
1 107:1 1338:1.1181462e-07 1342:0.058823529 
1 1:1 1338:6.9970147e-05 1342:0.058823529 
1 1:1 1285:1 1338:0.00044392697 1339:0.033333333 1340:0.36842105 1341:0.1 
1 11:1 1338:5.3225099e-05 1342:0.058823529 
1 5:1 1251:1 1338:3.3819743e-06 1339:0.066666667 1340:0.052631579 
1 1:1 1277:1 1338:0.00013604679 1339:0.16666667 1341:0.05 
1 2:1 1338:2.752167e-05 1342:0.058823529 
1 5:1 1338:0.0010594707 1342:0.11764706 
1 1:1 1252:1 1338:0.00015774385 1342:0.11764706 
1 5:1 1338:1.8189553e-05 1342:0.11764706 
1 5:1 1276:1 1338:0.00048383459 1340:0.10526316 
1 9:1 1291:1 1338:7.2400805e-07 1340:0.47368421 1341:0.9 
1 1:1 1285:1 1338:9.4787085e-05 1339:0.13333333 1340:0.31578947 1341:0.1 
1 5:1 1283:1 1338:0.00015376791 1342:0.11764706 
1 5:1 1283:1 1338:0.00016033448 1342:0.11764706 
1 1:1 1342:0.11764706 
1 7:1 1289:1 1338:2.7945964e-05 1339:0.066666667 1341:0.05 1342:0.058823529 
1 1:1 1268:1 1338:0.00022860221 1342:0.29411765 
1 5:1 1338:0.00018184726 1342:0.058823529 
1 1:1 1268:1 1338:0.00022596899 1340:0.052631579 
1 1:1 1277:1 1338:8.3940565e-05 1339:0.1 1341:0.05 
1 1:1 1338:1.4863096e-05 1342:0.058823529 
1 1:1 1338:5.7703927e-05 1342:0.058823529 
1 1:1 1268:1 1338:0.00025674951 1342:0.058823529 
1 1:1 1315:1 1338:0.00019544399 1340:0.052631579 
1 1:1 1273:1 1338:1.896356e-05 1342:0.23529412 
1 1:1 1277:1 1338:8.7523148e-05 1339:0.23333333 1341:0.05 
1 1:1 1244:1 1338:0.00012514626 1342:0.11764706 
1 12:1 1282:1 1338:1.1459605e-06 1341:0.15 1342:0.29411765 
1 1:1 1255:1 1338:9.3643354e-09 1339:0.1 1341:0.05 
1 1:1 1262:1 1338:9.2796718e-05 1340:0.052631579 
1 1:1 1277:1 1338:0.00011540256 1339:0.23333333 1341:0.05 
1 5:1 1276:1 1338:0.0004001443 1340:0.10526316 
1 2:1 1338:1.7408746e-06 1342:0.058823529 
1 2:1 1338:1.3698685e-06 1342:0.058823529 
1 1:1 1252:1 1338:6.9898075e-07 1340:0.052631579 1341:0.1 
1 5:1 1251:1 1338:3.0869978e-06 1339:0.066666667 1340:0.052631579 
1 1:1 1253:1 1338:3.7052111e-05 1341:0.1 
1 1:1 1252:1 1338:7.5198958e-07 1340:0.052631579 1341:0.15 
0.0007906496441925706 828:1 1338:0.00083610138 1342:0.058823529 
1 1:1 1285:1 1338:9.4821477e-05 1339:0.13333333 1340:0.31578947 1341:0.1 
1 5:1 1338:0.00010327101 1342:0.058823529 
1 1:1 1338:0.00022623248 1341:0.1 1342:0.29411765 
1 2:1 1315:1 1338:1.3413296e-06 1340:0.052631579 
1 2:1 1289:1 1338:4.404805e-06 1340:0.15789474 1341:0.05 1342:0.058823529 
1 9:1 1333:1 1338:1.1130182e-06 1339:0.033333333 1342:0.058823529 
1 3:1 1255:1 1338:4.8287642e-07 1339:0.1 1341:0.05 
1 1:1 1338:0.00018514941 1339:0.033333333 1342:0.058823529 
1 5:1 1251:1 1338:2.6420804e-06 1339:0.066666667 1340:0.052631579 
1 5:1 1251:1 1338:2.9429654e-06 1339:0.066666667 1340:0.052631579 
1 3:1 1255:1 1338:9.3866315e-08 1339:0.1 1341:0.05 
1 1:1 1252:1 1338:4.1222028e-06 1340:0.052631579 1341:0.1 
1 2:1 1260:1 1338:1.455424e-05 1339:0.033333333 1340:0.052631579 
1 2:1 1338:1.7380207e-05 1342:0.17647059 
1 5:1 1338:0.00016614767 1342:0.058823529 
1 10:1 1260:1 1339:0.1 
1 3:1 1334:1 1338:1.8565352e-06 1339:0.066666667 1341:0.05 
1 2:1 1334:1 1338:3.8808649e-05 1339:0.066666667 1341:0.05 
1 17:1 1338:0.0066502903 1341:0.05 1342:0.11764706 
1 7:1 1338:0.018402445 1341:0.1 1342:0.058823529 
1 1:1 1338:1.1852294e-05 1339:0.033333333 1342:0.058823529 
1 17:1 1341:0.05 1342:0.11764706 
1 48:1 1332:1 1338:0.00042043124 1342:0.058823529 
1 2:1 1334:1 1338:0.00015342527 1339:0.066666667 1341:0.05 
1 1:1 1338:0.00021673203 1339:0.033333333 1342:0.058823529 
1 3:1 1255:1 1338:3.9397097e-07 1339:0.1 1341:0.05 
1 1:1 1342:0.11764706 
1 3:1 1289:1 1338:2.3271488e-07 1340:0.10526316 1341:0.05 1342:0.058823529 
1 2:1 1294:1 1338:2.2728301e-05 1340:0.052631579 1341:0.05 
1 6:1 1309:1 1338:2.9680484e-06 1339:0.033333333 
1 10:1 1260:1 1338:8.1451882e-06 1340:0.052631579 
1 1:1 1310:1 1338:1.2092813e-06 1342:0.17647059 
1 7:1 1333:1 1338:0.00095822301 1339:0.033333333 1342:0.058823529 
1 3:1 1334:1 1338:6.3638463e-07 1339:0.066666667 1341:0.05 
1 1:1 1247:1 1338:0.00040117766 1341:0.05 
1 13:1 1297:1 1338:0.00020286016 1339:0.23333333 1340:0.26315789 1341:0.15 1342:0.058823529 
1 3:1 1251:1 1338:2.1192383e-07 1341:0.05 1342:0.058823529 
1 1:1 1338:1.1767179e-05 1339:0.033333333 1342:0.058823529 
1 1:1 1338:3.3924813e-05 1342:0.058823529 
1 1:1 1338:0.0002135205 1341:0.1 1342:0.29411765 
1 1:1 1277:1 1338:0.00013698072 1339:0.23333333 1341:0.05 
1 12:1 1282:1 1338:1.6269975e-06 1341:0.15 1342:0.23529412 
1 2:1 1245:1 1338:4.9503222e-05 1341:0.05 
1 1:1 1338:0.00022117512 1341:0.1 1342:0.29411765 
1 1:1 1338:0.0002020099 1341:0.1 1342:0.29411765 
1 3:1 1260:1 1338:8.1324794e-08 1340:0.10526316 
1 5:1 1338:0.00015886439 1341:0.05 1342:0.058823529 
1 5:1 1251:1 1338:2.4818833e-06 1339:0.066666667 1340:0.052631579 
1 1:1 1291:1 1338:8.0238977e-05 1341:0.05 
1 1:1 1315:1 1338:0.00011892321 1340:0.052631579 
1 1:1 1291:1 1338:7.7621534e-05 1341:0.05 
1 1:1 1338:2.0685928e-05 1342:0.058823529 
1 19:1 1263:1 1338:9.6465475e-06 1339:0.23333333 1340:0.26315789 1341:0.15 1342:0.058823529 
1 1:1 1285:1 1338:0.00036680492 1339:0.033333333 1340:0.36842105 1341:0.1 
1 2:1 1239:1 1338:0.00012123336 1342:0.17647059 
1 2:1 1308:1 1338:2.0197422e-06 1340:0.10526316 1341:0.05 1342:0.058823529 
1 1:1 1288:1 1338:7.5513165e-05 1339:0.033333333 
1 12:1 1282:1 1338:1.6225383e-06 1341:0.15 1342:0.23529412 
1 5:1 1283:1 1338:0.00011882461 1342:0.11764706 
1 12:1 1338:1.9948821e-06 1342:0.17647059 
1 7:1 1261:1 1342:0.11764706 
1 1:1 1338:0.00023659874 1339:0.033333333 1342:0.058823529 
1 6:1 1242:1 1338:7.5913546e-06 1342:0.058823529 
1 1:1 1288:1 1338:7.6165324e-05 1339:0.033333333 
1 7:1 1338:2.3688424e-06 1342:0.11764706 
1 17:1 1341:0.05 1342:0.11764706 
1 1:1 1277:1 1338:0.00015001392 1339:0.16666667 1341:0.05 
1 6:1 1338:5.0913446e-05 1342:0.11764706 
1 5:1 1334:1 1338:5.4182045e-05 1339:0.033333333 
1 3:1 1255:1 1338:2.0177913e-08 1339:0.1 1341:0.05 
1 1:1 1251:1 1338:1.7356907e-06 1341:0.05 1342:0.058823529 
1 3:1 1251:1 1338:1.6092165e-07 1341:0.05 1342:0.058823529 
1 74:1 1338:3.0696905e-05 1339:0.033333333 
1 5:1 1338:0.00028129048 1342:0.058823529 
1 1:1 1277:1 1338:0.00014843224 1339:0.16666667 1341:0.05 
1 12:1 1242:1 1338:0.01066568 1342:0.058823529 
1 1:1 1277:1 1338:0.00011370533 1339:0.16666667 1341:0.05 
1 1:1 1291:1 1338:6.8433393e-05 1341:0.05 
1 5:1 1251:1 1338:2.9260204e-06 1339:0.066666667 1340:0.052631579 
1 1:1 1338:0.00040030015 1342:0.058823529 
1 1:1 1253:1 1338:0.0012417954 1339:0.033333333 
1 1:1 1338:0.00026033951 1341:0.1 1342:0.29411765 
1 1:1 1277:1 1338:0.0001320791 1339:0.16666667 1341:0.05 
1 5:1 1334:1 1338:0.00024851709 1339:0.033333333 
1 12:1 1255:1 1338:1.0470776e-06 1339:0.1 1341:0.05 
1 7:1 1333:1 1339:0.033333333 
1 56:1 1338:2.064613e-07 1342:0.23529412 
1 1:1 1251:1 1338:3.2384993e-08 1341:0.05 1342:0.058823529 
1 1:1 1296:1 1338:0.00028314222 1340:0.15789474 1342:0.058823529 
1 1:1 1338:3.0117375e-05 1339:0.033333333 1342:0.058823529 
1 5:1 1276:1 1338:2.2494806e-05 1340:0.052631579 
1 1:1 1338:0.00022589938 1341:0.1 1342:0.29411765 
1 2:1 1277:1 1338:7.0277108e-07 1339:0.066666667 
1 1:1 1338:5.0763338e-05 1342:0.058823529 
1 2:1 1260:1 1338:0.00032109621 1339:0.033333333 
1 1:1 1288:1 1338:7.0218246e-05 1339:0.033333333 
1 17:1 1338:0.012228114 1341:0.05 1342:0.11764706 
1 1:1 1338:5.4146204e-05 1342:0.058823529 
1 2:1 1308:1 1338:5.4582928e-06 1340:0.10526316 1341:0.05 1342:0.058823529 
1 2:1 1338:1.1101643e-05 1342:0.17647059 
1 7:1 1338:0.00027648892 1341:0.1 
1 2:1 1253:1 1338:1.2271739e-06 1340:0.052631579 
1 5:1 1338:0.00050587606 1342:0.058823529 
1 1:1 1313:1 1338:7.8541524e-05 1339:0.066666667 
1 2:1 1338:6.5639532e-07 1342:0.058823529 
1 2:1 1338:3.0822041e-06 1342:0.058823529 
1 5:1 1338:8.2843879e-05 1342:0.058823529 
1 5:1 1251:1 1338:2.5282591e-06 1339:0.066666667 1340:0.052631579 
1 1:1 1247:1 1338:0.00012352043 1341:0.1 
1 5:1 1251:1 1338:2.3647177e-06 1339:0.066666667 1340:0.052631579 
1 1:1 1338:0.00019905801 1341:0.1 1342:0.29411765 
1 1:1 1251:1 1338:2.2769828e-06 1341:0.05 1342:0.058823529 
1 7:1 1338:0.014759762 1342:0.058823529 
1 1:1 1285:1 1338:4.5479512e-05 1339:0.13333333 1340:0.31578947 1341:0.1 
1 1:1 1338:0.00025540924 1342:0.058823529 
1 1:1 1247:1 1338:0.00032793524 1341:0.05 
1 1:1 1269:1 1338:0.00011214115 1342:0.11764706 
1 4:1 1260:1 1338:4.0015812e-07 1339:0.1 
1 7:1 1333:1 1338:0.00053228945 1339:0.033333333 1342:0.058823529 
1 48:1 1338:0.020009675 1339:0.066666667 
1 48:1 1338:0.00040950345 1340:0.052631579 
1 1:1 1338:0.00023353794 1341:0.1 1342:0.29411765 
1 5:1 1251:1 1338:2.4377372e-06 1339:0.066666667 1340:0.052631579 
1 1:1 1342:0.11764706 
1 1:1 1262:1 1338:0.00011116118 1340:0.052631579 
1 3:1 1252:1 1338:1.1499181e-07 1340:0.052631579 1341:0.1 
1 1:1 1277:1 1338:4.4751211e-05 1339:0.066666667 1341:0.05 
1 1:1 1255:1 1338:7.9150931e-09 1339:0.1 1341:0.05 
1 2:1 1260:1 1338:2.3361286e-05 1339:0.033333333 1340:0.052631579 
1 1:1 1338:1.1697337e-05 1339:0.033333333 1342:0.058823529 
1 1:1 1244:1 1338:0.0002250732 1341:0.2 1342:0.17647059 
1 1:1 1285:1 1338:9.4739483e-05 1339:0.13333333 1340:0.31578947 1341:0.1 
1 1:1 1338:6.4937374e-05 1342:0.058823529 
1 3:1 1255:1 1338:3.8482959e-07 1339:0.1 1341:0.05 
1 5:1 1338:0.00049161496 1342:0.11764706 
1 5:1 1251:1 1338:2.455574e-06 1339:0.066666667 1340:0.052631579 
1 13:1 1263:1 1338:0.00021009873 1339:0.23333333 1340:0.26315789 1341:0.15 1342:0.058823529 
1 1:1 1338:3.3281851e-06 1342:0.058823529 
1 1:1 1338:0.00011519621 1342:0.058823529 
1 5:1 1338:9.7987458e-05 1342:0.058823529 
1 1:1 1313:1 1338:8.02727e-05 1339:0.066666667 
1 1:1 1244:1 1338:5.9719266e-05 1342:0.11764706 
1 1:1 1255:1 1338:1.1816899e-08 1339:0.1 1341:0.05 
1 3:1 1252:1 1338:1.1337535e-07 1340:0.052631579 1341:0.1 
1 12:1 1282:1 1338:1.8382581e-05 1342:0.35294118 
1 1:1 1285:1 1338:0.00040175903 1339:0.033333333 1340:0.36842105 1341:0.1 
1 1:1 1277:1 1338:0.00012250964 1339:0.23333333 1341:0.05 
1 1:1 1277:1 1338:8.7195006e-05 1339:0.1 1341:0.05 
1 1:1 1338:1.0386107e-05 1342:0.058823529 
1 2:1 1260:1 1338:1.240702e-05 1339:0.033333333 
1 6:1 1338:2.1175884e-05 1342:0.11764706 
1 10:1 1242:1 1338:3.3961323e-06 1342:0.058823529 
1 1:1 1338:3.9102511e-05 1342:0.058823529 
1 1:1 1277:1 1338:0.00012364641 1339:0.16666667 1341:0.05 
1 526:1 1338:0.00087299151 1341:0.05 1342:0.058823529 
1 12:1 1282:1 1338:1.7060927e-06 1341:0.15 1342:0.23529412 
1 3:1 1255:1 1338:4.8454862e-07 1339:0.1 1341:0.05 
1 3:1 1255:1 1338:1.9230332e-08 1339:0.1 1341:0.05 
1 1:1 1291:1 1338:7.7149861e-05 1341:0.05 
1 1:1 1258:1 1338:1.1306599e-05 1339:0.033333333 
1 5:1 1251:1 1338:2.8338263e-06 1339:0.066666667 1340:0.052631579 
1 97:1 1242:1 1338:1.8672931e-07 1342:0.17647059 
1 12:1 1338:0.032877766 1342:0.17647059 
1 7:1 1333:1 1338:0.00062717146 1339:0.033333333 
1 1:1 1338:0.0002333996 1339:0.033333333 1342:0.058823529 
1 2:1 1338:1.9320854e-05 1342:0.058823529 
1 1:1 1260:1 1338:8.8626746e-09 1340:0.10526316 
1 1:1 1260:1 1338:6.7724156e-05 1339:0.066666667 
1 5:1 1338:0.00018613244 1342:0.058823529 
1 3:1 1255:1 1338:1.1761159e-08 1339:0.1 1341:0.05 
1 2:1 1247:1 1338:7.2774264e-06 1342:0.058823529 
1 1:1 1338:0.00011238133 1339:0.033333333 1342:0.058823529 
1 17:1 1342:0.11764706 
1 10:1 1260:1 1338:7.7537255e-06 1340:0.10526316 
1 5:1 1283:1 1338:0.00013684616 1342:0.11764706 
1 1:1 1338:2.3602083e-05 1342:0.058823529 
1 7:1 1313:1 1338:0.0044892251 1339:0.033333333 
1 1:1 1338:0.00027694258 1342:0.058823529 
1 17:1 1251:1 1338:0.013158978 1341:0.1 
1 5:1 1251:1 1338:2.500835e-06 1339:0.066666667 1340:0.052631579 
1 1:1 1338:9.0096501e-05 1339:0.033333333 1342:0.058823529 
1 2:1 1334:1 1338:0.0010645082 1339:0.066666667 1341:0.05 
1 1:1 1291:1 1338:8.0190706e-05 1341:0.05 
1 1:1 1238:1 1338:7.876075e-07 1340:0.052631579 1341:0.05 1342:0.058823529 
1 3:1 1255:1 1338:1.6499067e-08 1339:0.1 1341:0.05 
1 1:1 1338:1.2091085e-05 1342:0.058823529 
1 1:1 1338:0.00034802023 1342:0.11764706 
1 10:1 1260:1 1338:2.5298198e-06 1340:0.052631579 
1 1:1 1338:0.00020838796 1341:0.1 1342:0.29411765 
1 1:1 1338:6.2954643e-05 1342:0.058823529 
1 1:1 1288:1 1338:0.00020172133 1342:0.17647059 
1 3:1 1255:1 1338:1.7535833e-06 1339:0.1 1341:0.05 
1 2:1 1253:1 1338:1.3698685e-06 1340:0.052631579 
1 1:1 1251:1 1338:1.9397552e-08 1341:0.05 1342:0.058823529 
1 1:1 1285:1 1338:0.00037602656 1339:0.033333333 1340:0.36842105 1341:0.1 
1 1:1 1338:5.6851382e-05 1342:0.058823529 
1 759:1 1242:1 1338:4.8610934e-06 1342:0.058823529 
1 2:1 1255:1 1338:2.891796e-07 1339:0.1 1341:0.05 
1 1:1 1252:1 1338:1.7288347e-06 1340:0.052631579 1341:0.1 
1 3:1 1251:1 1338:7.175422e-07 1341:0.05 1342:0.058823529 
1 1:1 1338:5.1034458e-05 1342:0.058823529 
1 5:1 1334:1 1338:4.8258601e-05 1339:0.033333333 
0.980363088619431 1:1 1252:1 1338:2.5231867e-06 1340:0.052631579 1341:0.1 
1 1:1 1238:1 1338:1.896356e-05 1342:0.23529412 
1 5:1 1283:1 1338:0.00014494849 1342:0.11764706 
1 1:1 1251:1 1338:7.6642626e-08 1341:0.05 1342:0.058823529 
1 10:1 1294:1 1338:0.0073438603 1339:0.86666667 1340:0.052631579 
1 2:1 1338:0.00045768691 1342:0.058823529 
1 2:1 1338:1.7687112e-05 1342:0.17647059 
1 5:1 1283:1 1338:0.0004290544 1342:0.17647059 
1 1:1 1338:2.435162e-05 1339:0.033333333 1342:0.058823529 
1 1:1 1251:1 1338:4.5514572e-06 1341:0.05 1342:0.058823529 
0.02203416332045432 1:1 1310:1 1342:0.17647059 
1 1:1 1338:0.00016411795 1342:0.11764706 
1 17:1 1338:0.0050820529 1341:0.05 1342:0.058823529 
1 5:1 1268:1 1338:0.0032274673 1339:0.033333333 
1 1:1 1313:1 1338:7.5459822e-05 1339:0.033333333 
1 3:1 1338:2.6817116e-06 1342:0.17647059 
1 10:1 1260:1 1338:2.0111025e-07 1340:0.052631579 
1 3:1 1255:1 1338:3.3890533e-06 1339:0.1 1341:0.05 
1 2:1 1283:1 1338:1.9320854e-05 1342:0.17647059 
1 1:1 1338:6.3525868e-06 1341:0.1 
1 1:1 1342:0.11764706 
1 5:1 1338:7.1032163e-05 1342:0.058823529 
1 1:1 1288:1 1338:8.0026775e-05 1339:0.033333333 
1 1:1 1262:1 1338:9.4990704e-05 1342:0.058823529 
1 1:1 1268:1 1338:0.000262738 1342:0.29411765 
0.3709761456494714 41:1 1338:5.7980844e-07 1342:0.058823529 
1 2:1 1245:1 1338:1.4520294e-07 1342:0.058823529 
1 5:1 1251:1 1338:2.6142103e-06 1339:0.066666667 1340:0.052631579 
1 10:1 1260:1 1339:0.1 
1 1:1 1253:1 1338:9.648164e-06 1339:0.033333333 
1 48:1 1332:1 1338:0.00021987147 1342:0.058823529 
1 1:1 1338:1.4744369e-05 1339:0.033333333 1342:0.058823529 
1 7:1 1334:1 1338:0.0088266719 1339:0.033333333 1341:0.05 
1 1:1 1285:1 1338:0.00036099234 1339:0.033333333 1340:0.42105263 1341:0.1 
1 1:1 1268:1 1338:0.00023566353 1342:0.29411765 
1 46:1 1277:1 1338:1.0836487e-05 1340:0.052631579 
1 10:1 1242:1 1338:0.00017619934 1342:0.058823529 
1 3:1 1255:1 1338:1.805979e-08 1339:0.1 1341:0.05 
1 1:1 1288:1 1338:7.1859959e-05 1341:0.05 
1 1:1 1251:1 1338:1.6050917e-06 1341:0.05 1342:0.058823529 
1 1:1 1251:1 1338:2.2700152e-06 1341:0.05 1342:0.058823529 
1 1:1 1268:1 1338:0.00023952788 1342:0.058823529 
1 1:1 1288:1 1338:0.000160426 1339:0.033333333 
1 5:1 1338:0.000246007 1342:0.058823529 
1 10:1 1260:1 1338:1.7616656e-06 1340:0.052631579 
1 2:1 1334:1 1338:2.2545752e-06 1339:0.066666667 1341:0.05 
1 1:1 1338:0.0001654211 1342:0.11764706 
1 3:1 1255:1 1338:3.9458411e-07 1339:0.1 1341:0.05 
1 5:1 1251:1 1338:2.4622628e-06 1339:0.066666667 1340:0.052631579 
1 2:1 1245:1 1338:0.0023697866 1342:0.058823529 
1 1:1 1244:1 1338:6.0943262e-05 1342:0.11764706 
1 1:1 1260:1 1338:2.8929108e-07 1340:0.10526316 
1 1:1 1338:3.9743856e-05 1342:0.058823529 
1 13:1 1297:1 1338:2.6734565e-05 1339:0.23333333 1340:0.26315789 1341:0.15 1342:0.058823529 
1 1:1 1244:1 1338:0.00012973144 1342:0.11764706 
1 1:1 1262:1 1338:0.00011537068 1340:0.052631579 
1 11:1 1264:1 1338:9.9001538e-05 1339:0.033333333 1341:0.05 1342:0.058823529 
1 1:1 1313:1 1338:4.7436546e-05 1339:0.1 1340:0.052631579 
1 6:1 1338:8.3333667e-05 1342:0.11764706 
1 1:1 1251:1 1338:1.0930632e-07 1341:0.05 1342:0.058823529 
1 5:1 1251:1 1338:2.2347318e-06 1339:0.066666667 1340:0.052631579 
1 1:1 1251:1 1338:6.4379806e-08 1341:0.05 1342:0.058823529 
1 1:1 1338:0.00024471673 1341:0.1 1342:0.29411765 
1 1:1 1338:1.8874208e-05 1342:0.058823529 
1 1:1 1338:3.9249163e-05 1342:0.058823529 
1 1:1 1338:0.00011787831 1339:0.033333333 1342:0.058823529 
1 5:1 1283:1 1338:0.00010280552 1342:0.11764706 
1 13:1 1297:1 1338:0.00019072777 1339:0.23333333 1340:0.26315789 1341:0.15 1342:0.058823529 
1 5:1 1251:1 1338:2.5573554e-06 1339:0.066666667 1340:0.052631579 
1 2:1 1253:1 1338:8.3048278e-06 1340:0.052631579 
1 17:1 1338:0.0043994694 1341:0.05 1342:0.058823529 
1 17:1 1339:0.033333333 1341:0.05 1342:0.11764706 
1 1:1 1285:1 1338:0.00038964008 1339:0.033333333 1340:0.42105263 1341:0.15 
1 12:1 1242:1 1338:0.00034234294 1342:0.11764706 
1 1:1 1338:3.3471925e-06 1342:0.058823529 
1 1:1 1258:1 1338:3.5681462e-06 1339:0.033333333 
1 1:1 1289:1 1338:0.00011301638 1339:0.13333333 1341:0.05 1342:0.058823529 
1 1:1 1258:1 1338:6.1032e-05 1339:0.033333333 
1 1:1 1255:1 1338:7.9150931e-09 1339:0.1 1341:0.05 
1 2:1 1308:1 1338:6.099694e-06 1340:0.10526316 1341:0.05 1342:0.058823529 
1 1:1 1313:1 1338:7.1791176e-05 1339:0.033333333 
1 1:1 1338:0.00020015108 1341:0.1 1342:0.29411765 
1 2:1 1245:1 1338:1.9291646e-07 1342:0.058823529 
1 1:1 1338:1.5711404e-05 1339:0.033333333 1342:0.058823529 
1 1:1 1338:0.00019807375 1341:0.1 1342:0.29411765 
1 1:1 1338:0.00018629231 1339:0.033333333 1342:0.058823529 
1 1:1 1338:1.1803355e-05 1342:0.058823529 
1 1:1 1254:1 1338:3.7430252e-05 1339:0.2 1340:0.10526316 1341:0.25 
1 1242:1 1338:3.2708286e-07 1342:0.058823529 
1 1:1 1268:1 1338:0.00024146218 1342:0.29411765 
1 2:1 1247:1 1338:6.5068754e-06 1342:0.058823529 
1 5:1 1251:1 1338:2.8342722e-06 1339:0.066666667 1340:0.052631579 
1 3:1 1251:1 1338:1.5562634e-07 1341:0.05 1342:0.058823529 
1 1:1 1260:1 1338:5.3763715e-05 1339:0.066666667 
1 1:1 1277:1 1338:0.00012977458 1339:0.16666667 1341:0.05 
1 1:1 1289:1 1338:0.00010410516 1339:0.13333333 1341:0.05 1342:0.058823529 
1 17:1 1340:0.052631579 1341:0.05 1342:0.11764706 
1 1:1 1288:1 1338:6.1043316e-05 1339:0.033333333 
1 17:1 1251:1 1338:0.0153014 1341:0.05 
1 1:1 1277:1 1338:6.9096477e-05 1339:0.23333333 1341:0.05 
1 1:1 1247:1 1338:0.00013399071 1341:0.1 
1 1:1 1338:0.00015572366 1339:0.033333333 1342:0.058823529 
1 17:1 1341:0.05 1342:0.11764706 
1 5:1 1338:0.00026645659 1341:0.05 1342:0.058823529 
1 1:1 1255:1 1338:2.396824e-09 1339:0.1 1341:0.05 
1 2:1 1242:1 1338:5.5149247e-07 1342:0.058823529 
1 2:1 1294:1 1338:1.2423519e-05 1340:0.52631579 1342:0.058823529 
1 1:1 1338:2.7695078e-05 1342:0.058823529 
1 1:1 1338:3.009965e-09 1342:0.058823529 
1 1:1 1255:1 1338:2.396824e-09 1339:0.1 1341:0.05 
1 1:1 1338:0.00021219434 1341:0.1 1342:0.29411765 
1 1:1 1338:6.9019054e-05 1342:0.058823529 
1 5:1 1338:0.00013653797 1342:0.058823529 
1 3:1 1255:1 1338:9.721072e-08 1339:0.1 1341:0.05 
1 1:1 1288:1 1338:7.5087979e-05 1339:0.033333333 
1 1:1 1338:9.4224556e-05 1339:0.033333333 1342:0.058823529 
1 1:1 1338:1.3939928e-05 1339:0.033333333 1342:0.058823529 
1 9:1 1260:1 1338:8.8571006e-07 1340:0.10526316 
1 1:1 1338:1.5648362e-05 1339:0.033333333 1342:0.058823529 
1 2:1 1338:1.1130182e-06 1342:0.058823529 
1 46:1 1338:1.6616121e-06 1341:0.1 
1 1:1 1288:1 1338:7.3917382e-05 1339:0.033333333 
1 1:1 1268:1 1338:0.00024119886 1342:0.058823529 
1 2:1 1245:1 1338:6.5996269e-08 1342:0.058823529 
1 2:1 1245:1 1338:5.0979275e-05 1341:0.05 
1 1:1 1258:1 1338:1.5100938e-05 1339:0.033333333 
1 1:1 1255:1 1338:2.396824e-09 1339:0.1 1341:0.05 
1 3:1 1255:1 1338:9.7600901e-08 1339:0.1 1341:0.05 
1 3:1 1255:1 1338:4.0010238e-07 1339:0.1 1341:0.05 
1 1:1 1338:0.00022165432 1341:0.1 1342:0.29411765 
1 7:1 1338:0.00029847348 1342:0.058823529 
1 2:1 1245:1 1338:0.00058026673 1341:0.05 1342:0.058823529 
1 5:1 1251:1 1338:2.9147609e-06 1339:0.066666667 1340:0.052631579 
1 1:1 1258:1 1338:9.207873e-06 1339:0.033333333 
1 1:1 1252:1 1338:0.00018020543 1342:0.11764706 
1 1:1 1285:1 1338:0.00033334832 1339:0.033333333 1340:0.36842105 1341:0.1 
1 2:1 1264:1 1339:0.1 1342:0.058823529 
1 1:1 1251:1 1338:1.5105565e-08 1341:0.05 1342:0.058823529 
1 7:1 1338:0.00066649498 1342:0.058823529 
1 2:1 1253:1 1338:1.7979524e-06 1340:0.052631579 
1 3:1 1251:1 1338:1.3790099e-07 1341:0.05 1342:0.058823529 
1 12:1 1291:1 1338:0.016529154 1339:0.066666667 1340:0.10526316 
1 1:1 1313:1 1338:7.5279837e-05 1339:0.066666667 
1 10:1 1242:1 1338:1.2271739e-06 1342:0.058823529 
1 1:1 1262:1 1338:0.00010829759 1339:0.033333333 1340:0.052631579 
1 2:1 1245:1 1338:2.6431952e-07 1339:0.033333333 
1 1:1 1338:1.9543703e-05 1339:0.033333333 1342:0.058823529 
1 1:1 1260:1 1338:5.1782545e-08 1340:0.10526316 
1 1:1 1251:1 1338:2.7870046e-09 1341:0.05 1342:0.058823529 
1 2:1 1334:1 1338:6.7566467e-06 1339:0.066666667 1341:0.05 
1 19:1 1263:1 1338:1.3476394e-05 1339:0.23333333 1340:0.26315789 1341:0.15 1342:0.058823529 
0.9995703154381159 18:1 1242:1 1338:2.7368385e-08 1342:0.11764706 
1 3:1 1251:1 1338:2.9759635e-07 1341:0.05 1342:0.058823529 
1 1:1 1338:1.0349765e-05 1339:0.033333333 1342:0.11764706 
1 5:1 1276:1 1338:3.0771095e-05 1340:0.052631579 
1 1:1 1285:1 1338:0.00043267812 1339:0.033333333 1340:0.36842105 1341:0.1 
1 10:1 1242:1 1338:7.5628157e-06 1342:0.058823529 
1 5:1 1251:1 1338:2.2064158e-06 1339:0.066666667 1340:0.052631579 
1 17:1 1338:0.0048051769 1341:0.05 1342:0.058823529 
1 10:1 1260:1 1338:2.6253862e-05 1340:0.052631579 
1 1:1 1338:0.00012553009 1342:0.058823529 
1 2:1 1238:1 1338:1.0473786e-05 1340:0.052631579 1342:0.11764706 
1 1:1 1338:0.0001105374 1342:0.058823529 
1 10:1 1242:1 1338:3.6529827e-06 1342:0.058823529 
1 2:1 1248:1 1338:5.5740092e-11 1339:0.2 
1 2:1 1251:1 1338:1.7285003e-07 1339:0.066666667 1340:0.15789474 
1 1:1 1338:0.00022117685 1341:0.1 1342:0.29411765 
1 17:1 1251:1 1338:0.013157498 1341:0.1 
1 1:1 1254:1 1338:3.4939339e-05 1339:0.2 1340:0.10526316 1341:0.25 
1 192:1 1334:1 1338:7.5219582e-06 1339:0.066666667 1341:0.05 
1 3:1 1255:1 1338:9.9328844e-08 1339:0.1 1341:0.05 
1 526:1 1338:0.00087299151 1341:0.05 1342:0.058823529 
1 5:1 1245:1 1338:7.333919e-05 1342:0.058823529 
1 1:1 1313:1 1338:7.3898876e-05 1339:0.066666667 
1 5:1 1338:0.00013348074 1342:0.058823529 
1 70:1 1248:1 1338:5.5740092e-11 1339:0.066666667 
1 2:1 1294:1 1338:2.8743159e-05 1340:0.52631579 
1 12:1 1342:0.11764706 
1 290:1 1255:1 1338:8.7640537e-05 1339:0.033333333 
1 10:1 1260:1 1338:1.7764367e-07 1340:0.10526316 
1 1:1 1255:1 1338:3.4781817e-08 1339:0.1 1341:0.05 
1 1:1 1260:1 1338:1.8505711e-08 1340:0.10526316 
1 2:1 1338:7.1061928e-06 1342:0.058823529 
1 1:1 1338:5.9154953e-05 1339:0.033333333 1340:0.052631579 1342:0.058823529 
1 1:1 1288:1 1338:8.1152836e-05 1339:0.033333333 
1 1:1 1315:1 1338:0.00014629533 1340:0.052631579 
1 1:1 1251:1 1338:2.1965498e-06 1341:0.05 1342:0.058823529 
1 1:1 1285:1 1338:9.5075373e-05 1339:0.13333333 1340:0.31578947 1341:0.1 
1 1:1 1338:0.00026079016 1342:0.058823529 
1 1:1 1285:1 1338:0.00035143493 1339:0.033333333 1340:0.42105263 1341:0.15 
1 5:1 1342:0.11764706 
1 5:1 1276:1 1338:0.00019887452 1340:0.052631579 
1 1:1 1338:0.00036527731 1342:0.11764706 
1 7:1 1338:0.00074391864 1342:0.058823529 
1 2:1 1338:2.95476e-05 1342:0.17647059 
1 3:1 1310:1 1338:4.48652e-07 1342:0.17647059 
1 4:1 1260:1 1338:3.026687e-08 1339:0.1 
1 1:1 1283:1 1338:5.2410179e-06 1342:0.11764706 
1 5:1 1283:1 1338:0.00013477001 1342:0.11764706 
1 3:1 1255:1 1338:1.1761159e-08 1339:0.1 1341:0.05 
1 4:1 1242:1 1338:1.4927197e-07 1342:0.058823529 
1 1:1 1288:1 1338:4.8384852e-05 1339:0.033333333 
1 41:1 1332:1 1338:5.1481549e-07 1342:0.058823529 
1 2:1 1253:1 1338:4.1381444e-06 1340:0.052631579 
1 9:1 1333:1 1338:7.2488875e-06 1339:0.033333333 
1 1:1 1251:1 1338:8.1380534e-08 1341:0.05 1342:0.058823529 
1 1:1 1258:1 1338:9.1429525e-05 1339:0.033333333 
1 2:1 1245:1 1338:8.8905447e-08 1342:0.058823529 
1 1:1 1255:1 1338:9.3643354e-09 1339:0.1 1341:0.05 
0.7291136223653092 79:1 1238:1 1338:1.3698685e-05 1341:0.1 
1 5:1 1276:1 1338:0.0002764538 1340:0.052631579 
1 1:1 1268:1 1338:0.00019641894 1342:0.058823529 
1 1:1 1315:1 1338:0.00012923948 1340:0.052631579 
1 10:1 1268:1 1338:0.0013127474 1342:0.058823529 
1 1:1 1338:0.00010526338 1339:0.066666667 1342:0.058823529 
1 1:1 1338:0.0001996881 1341:0.1 1342:0.29411765 
1 5:1 1251:1 1338:3.0716135e-06 1339:0.066666667 1340:0.052631579 
1 8:1 1263:1 1338:1.43475e-06 1341:0.05 
1 10:1 1242:1 1338:0.0027421918 1342:0.058823529 
1 5:1 1251:1 1338:3.1517678e-06 1339:0.066666667 1340:0.052631579 
1 10:1 1260:1 1338:2.056815e-05 1340:0.10526316 
1 1:1 1285:1 1338:0.00044392697 1339:0.033333333 1340:0.36842105 1341:0.1 
1 1:1 1338:5.4842342e-05 1342:0.058823529 
1 5:1 1283:1 1338:0.00010000988 1342:0.11764706 
1 7:1 1338:0.00050405163 1342:0.058823529 
1 2:1 1245:1 1338:4.9943122e-08 1342:0.058823529 
1 1:1 1338:0.00011561955 1342:0.058823529 
1 2:1 1308:1 1338:6.099694e-06 1340:0.10526316 1341:0.05 1342:0.058823529 
1 5:1 1338:7.5824529e-05 1342:0.058823529 
1 17:1 1341:0.05 1342:0.17647059 
1 1:1 1262:1 1338:8.3052848e-05 1339:0.033333333 1340:0.052631579 
1 5:1 1251:1 1338:2.9203349e-06 1339:0.066666667 1340:0.052631579 
1 1:1 1338:0.00021868873 1341:0.1 1342:0.29411765 
1 1:1 1338:0.00015013672 1339:0.033333333 1342:0.058823529 
0.9715037725426946 41:1 1338:6.3454521e-07 1342:0.058823529 
1 1:1 1338:0.00019118757 1339:0.033333333 1342:0.058823529 
1 10:1 1260:1 1338:7.2353984e-06 1339:0.1 
1 3:1 1255:1 1338:2.3745279e-08 1339:0.1 1341:0.05 
1 196:1 1338:6.6210311e-06 1342:0.11764706 
1 7:1 1334:1 1338:0.0050032673 1339:0.033333333 1341:0.05 
1 5:1 1283:1 1338:0.00027812918 1342:0.11764706 
1 1:1 1338:0.00013139573 1342:0.058823529 
1 8:1 1263:1 1338:1.2635164e-06 1341:0.05 
1 12:1 1338:0.026848954 1342:0.11764706 
1 2:1 1334:1 1338:1.8505711e-08 1339:0.033333333 
1 2:1 1255:1 1338:1.243004e-08 1339:0.1 1341:0.05 
1 1:1 1277:1 1338:8.1823278e-05 1339:0.1 1341:0.05 
1 2:1 1248:1 1338:5.5740092e-11 1339:0.066666667 
1 1:1 1251:1 1338:2.1247008e-06 1341:0.05 1342:0.058823529 
1 7:1 1333:1 1338:0.00082705811 1339:0.033333333 1342:0.058823529 
1 2:1 1268:1 1338:1.5854712e-06 1341:0.1 
1 5:1 1276:1 1338:0.00059496171 1340:0.052631579 
1 3:1 1278:1 1338:4.6509533e-07 1342:0.058823529 
1 1:1 1262:1 1338:0.00013258589 1340:0.052631579 
1 2:1 1334:1 1338:1.5610013e-06 1339:0.066666667 1341:0.05 
1 1:1 1285:1 1338:0.00038445173 1339:0.033333333 1340:0.36842105 1341:0.1 
1 5:1 1283:1 1338:0.00020287236 1342:0.11764706 
1 1:1 1288:1 1338:6.8145941e-05 1339:0.033333333 
1 1:1 1338:0.0002030213 1341:0.25 
1 2:1 1242:1 1338:7.3576921e-09 1342:0.17647059 
1 1:1 1252:1 1338:7.1269282e-07 1340:0.052631579 1341:0.1 
1 2:1 1319:1 1338:0.0012394011 1339:0.033333333 1342:0.058823529 
1 13:1 1297:1 1338:0.00015619561 1339:0.23333333 1340:0.26315789 1341:0.15 1342:0.058823529 
1 5:1 1283:1 1338:0.00019468565 1342:0.11764706 
1 2:1 1252:1 1338:3.7100605e-07 1340:0.052631579 1341:0.1 
1 1:1 1285:1 1338:0.00041057656 1339:0.033333333 1340:0.36842105 1341:0.1 
1 2:1 1338:0.0005397832 1342:0.17647059 
1 1:1 1244:1 1338:5.9888827e-05 1342:0.11764706 
1 6:1 1338:1.9206698e-05 1342:0.11764706 
1 2:1 1245:1 1338:1.8829003e-07 1342:0.058823529 
1 2:1 1239:1 1338:2.1689585e-06 1342:0.17647059 
1 13:1 1263:1 1338:0.00021938681 1339:0.23333333 1340:0.26315789 1341:0.15 1342:0.058823529 
1 10:1 1260:1 1338:2.7312645e-09 1339:0.1 
1 1:1 1285:1 1338:7.2974204e-05 1339:0.13333333 1340:0.31578947 1341:0.1 
1 1:1 1288:1 1338:0.00021113867 1340:0.052631579 
1 5:1 1251:1 1338:2.6142103e-06 1339:0.066666667 1340:0.052631579 
1 1:1 1291:1 1338:7.680405e-05 1341:0.05 
1 1:1 1251:1 1338:3.3221095e-08 1341:0.05 1342:0.058823529 
1 1:1 1268:1 1338:0.00021683804 1342:0.29411765 
1 1:1 1285:1 1338:0.00038711516 1339:0.033333333 1340:0.36842105 1341:0.1 
1 1:1 1251:1 1338:3.3193782e-06 1341:0.05 1342:0.058823529 
1 10:1 1260:1 1338:7.9118713e-05 1340:0.052631579 
1 5:1 1276:1 1338:0.0012398787 1340:0.10526316 
1 1:1 1338:0.00025437872 1341:0.1 1342:0.29411765 
1 1:1 1253:1 1338:1.6544328e-05 1340:0.052631579 
1 1:1 1251:1 1338:5.6854894e-09 1341:0.05 1342:0.058823529 
1 1:1 1285:1 1338:7.3510089e-05 1339:0.13333333 1340:0.31578947 1341:0.1 
1 1:1 1313:1 1338:7.2088494e-05 1339:0.066666667 
1 1:1 1334:1 1338:3.1057822e-05 1339:0.033333333 
1 1:1 1247:1 1338:0.00013393213 1341:0.1 
1 1:1 1260:1 1338:5.1782545e-08 1340:0.10526316 
1 2:1 1242:1 1338:7.0605974e-07 1342:0.058823529 
1 1:1 1338:5.927524e-05 1339:0.033333333 1340:0.052631579 1342:0.058823529 
1 6:1 1338:0.00016712396 1342:0.11764706 
1 1:1 1268:1 1338:0.00027271119 1342:0.058823529 
1 10:1 1260:1 1338:3.1438861e-05 1340:0.052631579 
1 1:1 1251:1 1338:2.3531795e-06 1341:0.05 1342:0.058823529 
1 5:1 1276:1 1338:2.9802778e-05 1340:0.052631579 
1 1:1 1257:1 1338:0.00014173986 1341:0.05 
0.9682834619313507 212:1 1242:1 1338:2.1699506e-05 1341:0.1 
1 1:1 1338:5.877932e-05 1339:0.033333333 1340:0.052631579 1342:0.058823529 
1 1:1 1254:1 1338:3.2718765e-05 1339:0.2 1340:0.10526316 1341:0.25 
1 10:1 1260:1 1338:7.3967102e-08 1340:0.10526316 
1 1:1 1338:0.00020793735 1341:0.1 1342:0.29411765 
1 1192:1 1276:1 1338:9.6263139e-08 1340:0.052631579 
1 1:1 1251:1 1338:1.5072009e-05 1341:0.05 1342:0.058823529 
1 1:1 1338:1.1408771e-05 1342:0.058823529 
1 2:1 1338:5.9028757e-08 1341:0.05 1342:0.058823529 
1 1:1 1251:1 1338:3.7903263e-09 1341:0.05 1342:0.058823529 
1 1:1 1338:2.7112984e-05 1342:0.058823529 
1 3:1 1255:1 1338:4.8666674e-07 1339:0.1 1341:0.05 
1 17:1 1251:1 1338:0.017621525 1341:0.05 
1 5:1 1245:1 1338:3.0542449e-05 1342:0.058823529 
1 1:1 1238:1 1338:2.3460782e-05 1340:0.052631579 1342:0.11764706 
1 2:1 1253:1 1338:7.5405196e-07 1342:0.058823529 
1 1:1 1338:0.00021983062 1339:0.033333333 1342:0.058823529 
1 1:1 1251:1 1338:3.5529849e-06 1341:0.05 1342:0.058823529 
1 5:1 1283:1 1338:0.00015907453 1342:0.11764706 
1 1:1 1244:1 1338:0.00020469412 1341:0.2 1342:0.17647059 
1 1:1 1338:6.8677144e-05 1342:0.058823529 
1 1:1 1338:0.00020468319 1339:0.033333333 1342:0.058823529 
1 1:1 1244:1 1338:0.00012514626 1342:0.058823529 
1 7:1 1338:0.021663383 1342:0.058823529 
1 1:1 1285:1 1338:4.6014226e-05 1339:0.13333333 1340:0.31578947 1341:0.1 
1 1:1 1268:1 1338:0.00023592579 1342:0.29411765 
1 19:1 1263:1 1338:5.790448e-06 1339:0.23333333 1340:0.26315789 1341:0.15 1342:0.058823529 
1 7:1 1338:0.040785643 1342:0.058823529 
